svm_type c_svc
kernel_type rbf
gamma 0.02
nr_class 5
total_sv 193
rho 0.8978307077324722 0.82670111292684634 2.0873273180864893 0.85280714751238074 0.23075687600590519 0.28368425072817116 0.71746518363822853 -0.1346022199965963 0.33511522423976253 0.40210919845412924
label 1 3 5 2 4
nr_sv 24 38 41 44 46
SV
0 0 6.2835501439784389 0 1:0.075496613 2:0.78876614 3:0.67246645 4:-0.49030632 5:0.13317688 6:-0.59154633 7:0.04110317 8:-0.69289714 9:-1.0158282 10:-0.39656094 11:-0.68846608 12:-1.2116673 13:-1.0387326 14:0.12525971 15:-0.98701719 16:-0.80077908 17:-0.17974473 18:-0.091738283 19:-0.49300375 20:-0.30054947 21:-0.33723613 22:-0.15235888 23:-0.16818258 24:-0.022504889 25:0.28665383 26:-1.3769764 27:-0.051075419 28:0.20869882 29:-0.66625294 30:-0.54738878 31:0.025571185 32:-0.73867688 33:-0.38881786 34:-0.73867688 35:0.025571185 36:-0.54738878 37:-0.66625294 38:0.20869882 39:-0.051075419 40:-1.3769764 41:0.28665383 42:-0.022504889 43:-0.16818258 44:-0.15235888 45:-0.33723613 46:-0.30054947 47:-0.49300375 48:-0.091738283 49:-0.17974473 50:-0.80077908 51:-0.98701719 52:0.12525971 53:-1.0387326 54:-1.2116673 55:-0.68846608 56:-0.39656094 57:-1.0158282 58:-0.69289714 59:0.04110317 60:-0.59154633 61:0.13317688 62:-0.49030632 63:0.67246645 64:0.78876614 
0.25452844470684627 0.92514818345247618 0 0.70132431738774914 1:0.11979945 2:0.67431813 3:0.83321685 4:-0.54481467 5:0.30847468 6:-0.84921625 7:-0.32198182 8:-0.50834737 9:-0.91823337 10:-1.0077996 11:-0.59011598 12:-0.67683017 13:-1.0984573 14:-0.24551605 15:-1.3202944 16:-1.0623431 17:-0.43523099 18:-0.43913352 19:-0.64680421 20:-0.21896012 21:-0.95557185 22:-0.40548185 23:0.073413878 24:-0.20594606 25:0.13952838 26:-0.69940787 27:0.47701321 28:0.47809598 29:-1.386142 30:0.017203618 31:-0.25524769 32:-0.21922817 33:-0.80287777 34:-0.21922817 35:-0.25524769 36:0.017203618 37:-1.386142 38:0.47809598 39:0.47701321 40:-0.69940787 41:0.13952838 42:-0.20594606 43:0.073413878 44:-0.40548185 45:-0.95557185 46:-0.21896012 47:-0.64680421 48:-0.43913352 49:-0.43523099 50:-1.0623431 51:-1.3202944 52:-0.24551605 53:-1.0984573 54:-0.67683017 55:-0.59011598 56:-1.0077996 57:-0.91823337 58:-0.50834737 59:-0.32198182 60:-0.84921625 61:0.30847468 62:-0.54481467 63:0.83321685 64:0.67431813 
0 0 0.12656201265461012 0 1:-0.39834308 2:0.96952773 3:0.87404373 4:-0.52305706 5:0.59003718 6:-1.1668939 7:-0.62477098 8:-0.61737641 9:-0.74130465 10:-1.3824477 11:-0.49810609 12:-0.25464282 13:-0.57513154 14:-0.75471724 15:-0.16924654 16:-0.50982828 17:-0.36420711 18:-0.8323564 19:-0.50473804 20:-0.087118387 21:-1.0852178 22:-0.61158599 23:-0.35897183 24:-0.36152983 25:-0.46977111 26:-0.45158658 27:-0.57220168 28:-0.67910251 29:-0.19994413 30:-0.9765275 31:-0.066682727 32:-0.10355964 33:-0.68170462 34:-0.10355964 35:-0.066682727 36:-0.9765275 37:-0.19994413 38:-0.67910251 39:-0.57220168 40:-0.45158658 41:-0.46977111 42:-0.36152983 43:-0.35897183 44:-0.61158599 45:-1.0852178 46:-0.087118387 47:-0.50473804 48:-0.8323564 49:-0.36420711 50:-0.50982828 51:-0.16924654 52:-0.75471724 53:-0.57513154 54:-0.25464282 55:-0.49810609 56:-1.3824477 57:-0.74130465 58:-0.61737641 59:-0.62477098 60:-1.1668939 61:0.59003718 62:-0.52305706 63:0.87404373 64:0.96952773 
0 0 2.5212572425872359 0 1:1.4173924 2:-0.14512769 3:-0.031157805 4:-0.50966903 5:-0.89378856 6:-0.693851 7:-0.68540441 8:-0.80635216 9:-1.0951522 10:-1.2879979 11:-0.75582362 12:-0.67739476 13:-1.1934647 14:-0.92031238 15:-0.11067411 16:-0.75722371 17:-0.56859682 18:-0.53640613 19:-0.88514969 20:-0.65602724 21:-1.1771251 22:-0.80967202 23:-1.2931668 24:-0.2020366 25:-0.8890403 26:-0.58335812 27:-0.73244225 28:-0.68049952 29:-0.39403705 30:-0.66983753 31:-0.79499768 32:-1.0336937 33:0.48011094 34:-1.0336937 35:-0.79499768 36:-0.66983753 37:-0.39403705 38:-0.68049952 39:-0.73244225 40:-0.58335812 41:-0.8890403 42:-0.2020366 43:-1.2931668 44:-0.80967202 45:-1.1771251 46:-0.65602724 47:-0.88514969 48:-0.53640613 49:-0.56859682 50:-0.75722371 51:-0.11067411 52:-0.92031238 53:-1.1934647 54:-0.67739476 55:-0.75582362 56:-1.2879979 57:-1.0951522 58:-0.80635216 59:-0.68540441 60:-0.693851 61:-0.89378856 62:-0.50966903 63:-0.031157805 64:-0.14512769 
0.50729100196964994 0.2031355603155735 5.4213173742448273 0 1:0.30314551 2:0.95258623 3:0.087654713 4:-0.39385427 5:-0.75898367 6:0.092664728 7:-0.2838956 8:-0.53671226 9:-0.90237898 10:-0.4395035 11:-0.30647496 12:-0.50401081 13:-0.16245788 14:-0.81724492 15:-0.60775226 16:-0.85706404 17:-0.45764791 18:-0.65775034 19:-0.61690232 20:-0.3608293 21:-0.87992894 22:-0.33621443 23:-0.49183622 24:-0.96901099 25:-0.63664817 26:-0.26766119 27:-0.59711515 28:-0.28837372 29:-1.0368641 30:-0.42724554 31:-0.85172679 32:0.67244516 33:0.065108978 34:0.67244516 35:-0.85172679 36:-0.42724554 37:-1.0368641 38:-0.28837372 39:-0.59711515 40:-0.26766119 41:-0.63664817 42:-0.96901099 43:-0.49183622 44:-0.33621443 45:-0.87992894 46:-0.3608293 47:-0.61690232 48:-0.65775034 49:-0.45764791 50:-0.85706404 51:-0.60775226 52:-0.81724492 53:-0.16245788 54:-0.50401081 55:-0.30647496 56:-0.4395035 57:-0.90237898 58:-0.53671226 59:-0.2838956 60:0.092664728 61:-0.75898367 62:-0.39385427 63:0.087654713 64:0.95258623 
0.062347048792510608 0 0.89504200945999779 0 1:0.7828494 2:0.58691791 3:-0.052660058 4:-0.6705354 5:-0.72145963 6:-0.28189216 7:-0.079225055 8:-0.90743077 9:-0.34604918 10:-0.51398973 11:-0.2534965 12:-1.405569 13:-1.2013814 14:-0.50495318 15:-0.97946973 16:-0.7413489 17:-0.66327877 18:-1.0320556 19:-0.77923485 20:-0.3886046 21:-0.85917137 22:-0.76897172 23:-0.56416467 24:-0.79393428 25:-0.20852058 26:-0.72196737 27:0.19781807 28:-0.09157558 29:-1.0131621 30:0.077657475 31:-0.66372027 32:-0.56943185 33:-0.77996179 34:-0.56943185 35:-0.66372027 36:0.077657475 37:-1.0131621 38:-0.09157558 39:0.19781807 40:-0.72196737 41:-0.20852058 42:-0.79393428 43:-0.56416467 44:-0.76897172 45:-0.85917137 46:-0.3886046 47:-0.77923485 48:-1.0320556 49:-0.66327877 50:-0.7413489 51:-0.97946973 52:-0.50495318 53:-1.2013814 54:-1.405569 55:-0.2534965 56:-0.51398973 57:-0.34604918 58:-0.90743077 59:-0.079225055 60:-0.28189216 61:-0.72145963 62:-0.6705354 63:-0.052660058 64:0.58691791 
0.47868085185394033 0.29828514822593316 2.0272191463327762 0.47984076214445986 1:1.6592445 2:-0.28996391 3:-0.83618232 4:-0.81890577 5:-1.3071683 6:0.006546361 7:-1.2133493 8:-0.7701406 9:-1.2252379 10:-1.1851612 11:-1.1234241 12:-0.76012807 13:-1.1897495 14:-0.80274719 15:-0.54043963 16:-1.091378 17:-0.88597777 18:-0.9096234 19:-1.0038356 20:-0.94226208 21:-0.41796624 22:-0.93722227 23:-1.3016805 24:-0.24792247 25:-0.89571705 26:-1.2040341 27:-0.17915942 28:-1.1976479 29:-1.1756305 30:-0.248333 31:-1.0788746 32:-0.86474953 33:-0.04633174 34:-0.86474953 35:-1.0788746 36:-0.248333 37:-1.1756305 38:-1.1976479 39:-0.17915942 40:-1.2040341 41:-0.89571705 42:-0.24792247 43:-1.3016805 44:-0.93722227 45:-0.41796624 46:-0.94226208 47:-1.0038356 48:-0.9096234 49:-0.88597777 50:-1.091378 51:-0.54043963 52:-0.80274719 53:-1.1897495 54:-0.76012807 55:-1.1234241 56:-1.1851612 57:-1.2252379 58:-0.7701406 59:-1.2133493 60:0.006546361 61:-1.3071683 62:-0.81890577 63:-0.83618232 64:-0.28996391 
0 0 0.70496370255702212 0.0045474624098850915 1:0.63417924 2:0.80630681 3:-0.067293308 4:-0.25360629 5:-0.96518156 6:-0.63809275 7:-0.57242121 8:-0.15937222 9:-1.2869908 10:-0.1123507 11:-1.3829636 12:0.35284669 13:-0.40981636 14:0.29795891 15:-1.1194911 16:-0.8145396 17:-0.97072109 18:-0.24361628 19:-0.57413996 20:-0.38665434 21:-0.83935508 22:-0.40653617 23:-0.51017068 24:-1.0674739 25:-0.94771038 26:-0.70841198 27:-0.80543272 28:-0.39959868 29:-0.32162111 30:-1.1137129 31:-0.42037746 32:-0.46467046 33:-0.45788048 34:-0.46467046 35:-0.42037746 36:-1.1137129 37:-0.32162111 38:-0.39959868 39:-0.80543272 40:-0.70841198 41:-0.94771038 42:-1.0674739 43:-0.51017068 44:-0.40653617 45:-0.83935508 46:-0.38665434 47:-0.57413996 48:-0.24361628 49:-0.97072109 50:-0.8145396 51:-1.1194911 52:0.29795891 53:-0.40981636 54:0.35284669 55:-1.3829636 56:-0.1123507 57:-1.2869908 58:-0.15937222 59:-0.57242121 60:-0.63809275 61:-0.96518156 62:-0.25360629 63:-0.067293308 64:0.80630681 
1.6478653813569137 0.80717913857019452 0 0.94229791347417435 1:-1.491574 2:1.6333335 3:0.40325893 4:-0.5879685 5:-0.13652935 6:-0.091137702 7:0.016970561 8:-0.51345179 9:-0.54013494 10:-0.97982245 11:-0.16695896 12:-0.86631372 13:-0.68064557 14:-1.1868271 15:0.14744954 16:0.022792185 17:0.23696186 18:-0.59645085 19:-0.49330672 20:0.68880253 21:-0.7664769 22:-0.88800146 23:-1.3837328 24:-0.13223334 25:-0.77944974 26:0.21627938 27:-1.1896448 28:-0.1494936 29:0.064310304 30:-0.24194728 31:0.26218849 32:-0.73061905 33:-0.83489736 34:-0.73061905 35:0.26218849 36:-0.24194728 37:0.064310304 38:-0.1494936 39:-1.1896448 40:0.21627938 41:-0.77944974 42:-0.13223334 43:-1.3837328 44:-0.88800146 45:-0.7664769 46:0.68880253 47:-0.49330672 48:-0.59645085 49:0.23696186 50:0.022792185 51:0.14744954 52:-1.1868271 53:-0.68064557 54:-0.86631372 55:-0.16695896 56:-0.97982245 57:-0.54013494 58:-0.51345179 59:0.016970561 60:-0.091137702 61:-0.13652935 62:-0.5879685 63:0.40325893 64:1.6333335 
0.89035472880374955 0.90857374524494094 2.2342961307009892 0.93634222422758295 1:1.3473282 2:0.077183918 3:-0.44322531 4:-0.51888455 5:-1.6558857 6:-0.88029021 7:-0.88459687 8:-0.65303354 9:-1.5494078 10:-0.93263019 11:-1.2384795 12:1.1688938 13:-0.88897792 14:-0.14691549 15:0.041739128 16:-0.56522085 17:-0.98382238 18:0.65439808 19:-1.0041127 20:-1.0154642 21:0.58633003 22:-0.94185262 23:-1.2257287 24:-0.93339475 25:-1.1849437 26:-1.1289321 27:0.23050955 28:-1.272466 29:-1.3183816 30:-1.0121298 31:-0.59136006 32:-1.3144261 33:0.76295207 34:-1.3144261 35:-0.59136006 36:-1.0121298 37:-1.3183816 38:-1.272466 39:0.23050955 40:-1.1289321 41:-1.1849437 42:-0.93339475 43:-1.2257287 44:-0.94185262 45:0.58633003 46:-1.0154642 47:-1.0041127 48:0.65439808 49:-0.98382238 50:-0.56522085 51:0.041739128 52:-0.14691549 53:-0.88897792 54:1.1688938 55:-1.2384795 56:-0.93263019 57:-1.5494078 58:-0.65303354 59:-0.88459687 60:-0.88029021 61:-1.6558857 62:-0.51888455 63:-0.44322531 64:0.077183918 
1.0901638465814516 0 1.8379821860116727 0 1:0.71658155 2:0.66461751 3:-0.013286162 4:-0.74152789 5:-0.40369179 6:-0.32318172 7:-0.31042885 8:-0.82093239 9:-0.23789791 10:-0.43558144 11:-0.48270501 12:-0.87756881 13:-0.97476008 14:-0.35143552 15:-1.2590334 16:-0.90293917 17:-0.83490428 18:-0.4273182 19:-0.51528657 20:-0.82128281 21:-0.48905264 22:-0.80925388 23:0.024517399 24:-1.2949024 25:-0.71682204 26:0.16593131 27:-0.72711452 28:-0.3272486 29:-0.28560927 30:-0.32672498 31:-0.2944328 32:-0.90970496 33:-0.20580278 34:-0.90970496 35:-0.2944328 36:-0.32672498 37:-0.28560927 38:-0.3272486 39:-0.72711452 40:0.16593131 41:-0.71682204 42:-1.2949024 43:0.024517399 44:-0.80925388 45:-0.48905264 46:-0.82128281 47:-0.51528657 48:-0.4273182 49:-0.83490428 50:-0.90293917 51:-1.2590334 52:-0.35143552 53:-0.97476008 54:-0.87756881 55:-0.48270501 56:-0.43558144 57:-0.23789791 58:-0.82093239 59:-0.31042885 60:-0.32318172 61:-0.40369179 62:-0.74152789 63:-0.013286162 64:0.66461751 
0 0 0.50301148083724256 0 1:1.5766044 2:-0.53702322 3:0.0054011859 4:-0.77082621 5:-0.80349045 6:-0.78242725 7:-1.1308352 8:-0.93239734 9:-0.91905889 10:-1.243389 11:-0.90369448 12:-0.661525 13:-1.280212 14:-0.91796375 15:-0.3565974 16:-0.9853791 17:-0.94102969 18:-0.36666373 19:-1.0440678 20:-0.67987665 21:-0.88248081 22:-0.86468831 23:-1.2698071 24:0.0999724 25:-0.90983411 26:-0.868767 27:-0.28471152 28:-1.0879888 29:-0.95164209 30:-0.29974187 31:-0.90229117 32:-0.84079754 33:-0.17817805 34:-0.84079754 35:-0.90229117 36:-0.29974187 37:-0.95164209 38:-1.0879888 39:-0.28471152 40:-0.868767 41:-0.90983411 42:0.0999724 43:-1.2698071 44:-0.86468831 45:-0.88248081 46:-0.67987665 47:-1.0440678 48:-0.36666373 49:-0.94102969 50:-0.9853791 51:-0.3565974 52:-0.91796375 53:-1.280212 54:-0.661525 55:-0.90369448 56:-1.243389 57:-0.91905889 58:-0.93239734 59:-1.1308352 60:-0.78242725 61:-0.80349045 62:-0.77082621 63:0.0054011859 64:-0.53702322 
0.94971630064540191 1.0748313145237351 1.6439445792378342 0.8289427602158248 1:0.67275333 2:0.57170209 3:0.42052788 4:-0.73879461 5:-0.24852438 6:-0.47270365 7:-0.55645307 8:-0.76648984 9:-0.77803921 10:-0.98025597 11:-0.26183858 12:-1.2442858 13:-1.3992077 14:0.091088159 15:-0.68643699 16:-0.56288769 17:-0.68936619 18:0.54580511 19:-0.08637995 20:-1.1356578 21:0.93458601 22:0.080868676 23:0.11482063 24:0.45990444 25:-0.51169836 26:0.62485753 27:-0.19825556 28:-0.87134699 29:0.77970217 30:-0.6325884 31:-0.94063588 32:-0.33588684 33:-0.95763973 34:-0.33588684 35:-0.94063588 36:-0.6325884 37:0.77970217 38:-0.87134699 39:-0.19825556 40:0.62485753 41:-0.51169836 42:0.45990444 43:0.11482063 44:0.080868676 45:0.93458601 46:-1.1356578 47:-0.08637995 48:0.54580511 49:-0.68936619 50:-0.56288769 51:-0.68643699 52:0.091088159 53:-1.3992077 54:-1.2442858 55:-0.26183858 56:-0.98025597 57:-0.77803921 58:-0.76648984 59:-0.55645307 60:-0.47270365 61:-0.24852438 62:-0.73879461 63:0.42052788 64:0.57170209 
0 0 5.5554893502931755 0 1:-0.68442982 2:1.4124933 3:0.38325149 4:-0.61364026 5:-0.037483815 6:-0.48201792 7:-0.25576076 8:-0.53040592 9:-0.92578881 10:-1.2884186 11:-0.31518217 12:-0.44641988 13:-0.72676633 14:-1.1454684 15:0.20804045 16:0.033880641 17:-0.076683346 18:-0.41705324 19:-0.43275284 20:0.50098478 21:-0.8104844 22:-0.89584196 23:-1.2717635 24:0.019626796 25:-0.92703883 26:0.14496742 27:-0.34819424 28:-0.069208342 29:-0.49368996 30:-0.59479084 31:1.0591628 32:-0.38356526 33:-0.71686392 34:-0.38356526 35:1.0591628 36:-0.59479084 37:-0.49368996 38:-0.069208342 39:-0.34819424 40:0.14496742 41:-0.92703883 42:0.019626796 43:-1.2717635 44:-0.89584196 45:-0.8104844 46:0.50098478 47:-0.43275284 48:-0.41705324 49:-0.076683346 50:0.033880641 51:0.20804045 52:-1.1454684 53:-0.72676633 54:-0.44641988 55:-0.31518217 56:-1.2884186 57:-0.92578881 58:-0.53040592 59:-0.25576076 60:-0.48201792 61:-0.037483815 62:-0.61364026 63:0.38325149 64:1.4124933 
1.6217901260625993 1.277107007333369 2.9562591013135981 0.75597662977446822 1:0.1097659 2:0.9728064 3:0.38425949 4:-0.18555034 5:-0.62615818 6:-0.6095759 7:-0.48019099 8:-0.16958504 9:-0.63044632 10:0.17220227 11:-1.0726675 12:0.29101046 13:-0.48429232 14:0.15739481 15:0.014076128 16:-0.47197012 17:-0.57647283 18:0.68501926 19:-0.19494935 20:0.070770522 21:-0.049103794 22:-0.96685618 23:-0.65427283 24:0.098356331 25:-0.068342351 26:-0.16889937 27:-0.70671247 28:-0.18945132 29:-0.53213823 30:0.37265051 31:0.041287398 32:0.26775448 33:0.55953248 34:0.26775448 35:0.041287398 36:0.37265051 37:-0.53213823 38:-0.18945132 39:-0.70671247 40:-0.16889937 41:-0.068342351 42:0.098356331 43:-0.65427283 44:-0.96685618 45:-0.049103794 46:0.070770522 47:-0.19494935 48:0.68501926 49:-0.57647283 50:-0.47197012 51:0.014076128 52:0.15739481 53:-0.48429232 54:0.29101046 55:-1.0726675 56:0.17220227 57:-0.63044632 58:-0.16958504 59:-0.48019099 60:-0.6095759 61:-0.62615818 62:-0.18555034 63:0.38425949 64:0.9728064 
0 0 0.39033611821780551 0 1:1.4995237 2:-0.25767071 3:-0.18985174 4:-0.55850319 5:-0.98354185 6:-0.3443409 7:-0.50884671 8:-1.1683208 9:-0.49513713 10:-1.3450839 11:-0.56944643 12:-0.86305753 13:-1.0103211 14:-0.7960487 15:-0.82283931 16:-0.63604849 17:-0.80927723 18:-0.5365746 19:-1.0617094 20:-0.74918273 21:-0.80660989 22:-0.9991745 23:-0.7570691 24:-0.64381378 25:-0.8344863 26:-1.0170769 27:-0.41249803 28:-0.9722815 29:-0.82181819 30:-0.32724685 31:-0.70259485 32:-0.52131748 33:-0.52097789 34:-0.52131748 35:-0.70259485 36:-0.32724685 37:-0.82181819 38:-0.9722815 39:-0.41249803 40:-1.0170769 41:-0.8344863 42:-0.64381378 43:-0.7570691 44:-0.9991745 45:-0.80660989 46:-0.74918273 47:-1.0617094 48:-0.5365746 49:-0.80927723 50:-0.63604849 51:-0.82283931 52:-0.7960487 53:-1.0103211 54:-0.86305753 55:-0.56944643 56:-1.3450839 57:-0.49513713 58:-1.1683208 59:-0.50884671 60:-0.3443409 61:-0.98354185 62:-0.55850319 63:-0.18985174 64:-0.25767071 
0.51188985049334979 0.35797272566051108 0 0.12157687341028761 1:0.49035613 2:0.63315165 3:0.43202573 4:-0.38315717 5:-0.47643293 6:-0.83035533 7:-1.1754502 8:-0.42733783 9:-0.47964251 10:-0.29059349 11:-0.49899875 12:-1.0541189 13:-1.1297844 14:-0.57157413 15:-0.52364744 16:-0.80509624 17:-0.25537776 18:-1.0218613 19:-0.42958606 20:-0.72553653 21:-0.71665511 22:-0.57585723 23:0.027167321 24:-1.0296194 25:-0.36829795 26:-0.74798143 27:-0.9497803 28:-0.38171529 29:-0.37974339 30:-0.81188394 31:-0.65867699 32:-0.0093726702 33:-0.80350536 34:-0.0093726702 35:-0.65867699 36:-0.81188394 37:-0.37974339 38:-0.38171529 39:-0.9497803 40:-0.74798143 41:-0.36829795 42:-1.0296194 43:0.027167321 44:-0.57585723 45:-0.71665511 46:-0.72553653 47:-0.42958606 48:-1.0218613 49:-0.25537776 50:-0.80509624 51:-0.52364744 52:-0.57157413 53:-1.1297844 54:-1.0541189 55:-0.49899875 56:-0.29059349 57:-0.47964251 58:-0.42733783 59:-1.1754502 60:-0.83035533 61:-0.47643293 62:-0.38315717 63:0.43202573 64:0.63315165 
0 0 1.2663932725748637 0 1:0.49594906 2:0.87683785 3:0.16380139 4:-0.50223721 5:-0.4459763 6:-0.62085101 7:-0.57273842 8:-0.57235041 9:-1.1158664 10:-0.76916337 11:-0.63564765 12:-0.025846931 13:-0.50008061 14:-0.4113578 15:-0.87053239 16:-0.94143915 17:-0.1427919 18:-0.5365424 19:-0.51785138 20:-1.0175548 21:-0.30947051 22:-0.76833283 23:0.58125513 24:-1.1064578 25:-0.40124613 26:-1.0489312 27:-0.50041166 28:-0.20323189 29:-0.55017172 30:-0.74081205 31:-0.57853338 32:0.43006162 33:-0.79377396 34:0.43006162 35:-0.57853338 36:-0.74081205 37:-0.55017172 38:-0.20323189 39:-0.50041166 40:-1.0489312 41:-0.40124613 42:-1.1064578 43:0.58125513 44:-0.76833283 45:-0.30947051 46:-1.0175548 47:-0.51785138 48:-0.5365424 49:-0.1427919 50:-0.94143915 51:-0.87053239 52:-0.4113578 53:-0.50008061 54:-0.025846931 55:-0.63564765 56:-0.76916337 57:-1.1158664 58:-0.57235041 59:-0.57273842 60:-0.62085101 61:-0.4459763 62:-0.50223721 63:0.16380139 64:0.87683785 
0 0.15599636111606976 3.0446086219691764 0.0024763749910670795 1:-1.6183132 2:1.5253328 3:0.62421712 4:-0.517112 5:-0.076980053 6:-0.43476913 7:-0.05290928 8:-0.54501702 9:-0.36122914 10:-1.0209606 11:-0.17043585 12:-0.80554222 13:-0.39007784 14:-0.98416656 15:-0.019984091 16:0.1602495 17:-0.068420131 18:-0.67202828 19:-0.80880724 20:0.19494769 21:-0.6200395 22:-0.62572922 23:-0.6823129 24:0.079399213 25:-0.30104054 26:-0.67858778 27:-0.8105434 28:-0.23553721 29:0.14826908 30:-0.51843831 31:-0.62969846 32:-0.11634218 33:-0.083060567 34:-0.11634218 35:-0.62969846 36:-0.51843831 37:0.14826908 38:-0.23553721 39:-0.8105434 40:-0.67858778 41:-0.30104054 42:0.079399213 43:-0.6823129 44:-0.62572922 45:-0.6200395 46:0.19494769 47:-0.80880724 48:-0.67202828 49:-0.068420131 50:0.1602495 51:-0.019984091 52:-0.98416656 53:-0.39007784 54:-0.80554222 55:-0.17043585 56:-1.0209606 57:-0.36122914 58:-0.54501702 59:-0.05290928 60:-0.43476913 61:-0.076980053 62:-0.517112 63:0.62421712 64:1.5253328 
0 0 4.3177146555760819 0.059778822797099875 1:1.3924785 2:0.0081233151 3:-0.39282709 4:-0.56610429 5:-1.0423313 6:-0.66843204 7:-0.60368464 8:-0.76402801 9:-0.84048323 10:-1.2303013 11:-0.54398559 12:-0.62482081 13:-0.64458219 14:-1.2339929 15:0.72529694 16:-0.94264008 17:-0.10571917 18:-0.48401784 19:-0.97727526 20:-0.451722 21:-0.44808008 22:-0.97379301 23:-1.448762 24:0.31849879 25:-0.85972442 26:-0.90823371 27:-0.22211995 28:-0.78874665 29:-0.70393593 30:-0.74624335 31:-1.1644324 32:-0.34258118 33:-0.22589376 34:-0.34258118 35:-1.1644324 36:-0.74624335 37:-0.70393593 38:-0.78874665 39:-0.22211995 40:-0.90823371 41:-0.85972442 42:0.31849879 43:-1.448762 44:-0.97379301 45:-0.44808008 46:-0.451722 47:-0.97727526 48:-0.48401784 49:-0.10571917 50:-0.94264008 51:0.72529694 52:-1.2339929 53:-0.64458219 54:-0.62482081 55:-0.54398559 56:-1.2303013 57:-0.84048323 58:-0.76402801 59:-0.60368464 60:-0.66843204 61:-1.0423313 62:-0.56610429 63:-0.39282709 64:0.0081233151 
0 0 1.6288503881841687 0 1:0.49201706 2:0.8314828 3:0.25002088 4:-0.35997406 5:-0.53712744 6:-0.7158452 7:-0.34227219 8:-0.34020443 9:-1.2888445 10:-0.36622442 11:-0.75079508 12:0.39601164 13:-0.048898742 14:0.04592653 15:-0.68303053 16:-0.82748822 17:-0.37541989 18:0.18436536 19:-0.19915006 20:-0.58067554 21:-0.034559821 22:-0.94133819 23:-0.32741485 24:-0.88748734 25:-0.38336404 26:-0.31211946 27:-0.36733074 28:-0.52299042 29:-0.56299231 30:-0.39146543 31:-0.65382027 32:0.099862256 33:-0.31473271 34:0.099862256 35:-0.65382027 36:-0.39146543 37:-0.56299231 38:-0.52299042 39:-0.36733074 40:-0.31211946 41:-0.38336404 42:-0.88748734 43:-0.32741485 44:-0.94133819 45:-0.034559821 46:-0.58067554 47:-0.19915006 48:0.18436536 49:-0.37541989 50:-0.82748822 51:-0.68303053 52:0.04592653 53:-0.048898742 54:0.39601164 55:-0.75079508 56:-0.36622442 57:-1.2888445 58:-0.34020443 59:-0.34227219 60:-0.7158452 61:-0.53712744 62:-0.35997406 63:0.25002088 64:0.8314828 
0.96591753649476697 0 4.1469719989972136 0 1:0.35544808 2:0.82460895 3:0.22277723 4:-0.68837227 5:-0.25576367 6:-0.25909376 7:-0.08949842 8:-0.87238976 9:-0.26774395 10:-0.364326 11:-0.42493596 12:-0.7413789 13:-1.1403481 14:-0.17349416 15:-1.1058005 16:-0.78290293 17:-0.49223771 18:-0.99219359 19:-0.83045939 20:-0.45193024 21:-0.94984002 22:-0.60396538 23:-0.27005868 24:-0.77115033 25:-0.73686191 26:-0.32792167 27:-1.3358629 28:-0.70179569 29:-0.030943074 30:-0.83745196 31:-0.43203564 32:-0.29720587 33:-0.82171273 34:-0.29720587 35:-0.43203564 36:-0.83745196 37:-0.030943074 38:-0.70179569 39:-1.3358629 40:-0.32792167 41:-0.73686191 42:-0.77115033 43:-0.27005868 44:-0.60396538 45:-0.94984002 46:-0.45193024 47:-0.83045939 48:-0.99219359 49:-0.49223771 50:-0.78290293 51:-1.1058005 52:-0.17349416 53:-1.1403481 54:-0.7413789 55:-0.42493596 56:-0.364326 57:-0.26774395 58:-0.87238976 59:-0.08949842 60:-0.25909376 61:-0.25576367 62:-0.68837227 63:0.22277723 64:0.82460895 
0.42199219769205287 0.15318121316887476 2.4985124216529409 0 1:-1.8659951 2:1.2518563 3:0.88132977 4:-0.64644266 5:0.07636041 6:0.11927089 7:-0.08649367 8:-0.2502193 9:-0.59631686 10:-1.250782 11:-0.37788059 12:-0.15899215 13:-0.43089503 14:-0.72286019 15:-0.32114887 16:-0.68312896 17:-0.33875905 18:-0.59758167 19:-0.55814833 20:-0.32045942 21:-0.23423387 22:-0.61364008 23:-0.39916146 24:-0.14005138 25:-0.51446091 26:-0.50777872 27:-0.51241107 28:-0.46289989 29:0.34297186 30:-0.10028647 31:-0.72019527 32:-0.4345707 33:-0.13862441 34:-0.4345707 35:-0.72019527 36:-0.10028647 37:0.34297186 38:-0.46289989 39:-0.51241107 40:-0.50777872 41:-0.51446091 42:-0.14005138 43:-0.39916146 44:-0.61364008 45:-0.23423387 46:-0.32045942 47:-0.55814833 48:-0.59758167 49:-0.33875905 50:-0.68312896 51:-0.32114887 52:-0.72286019 53:-0.43089503 54:-0.15899215 55:-0.37788059 56:-1.250782 57:-0.59631686 58:-0.2502193 59:-0.08649367 60:0.11927089 61:0.07636041 62:-0.64644266 63:0.88132977 64:1.2518563 
0 0.015232852367096318 0 0 1:1.6879544 2:-0.59153091 3:-0.23867992 4:-0.62073589 5:-1.0444597 6:-0.32643807 7:-0.89482993 8:-0.57710353 9:-1.1511142 10:-1.2490981 11:-0.73724736 12:-0.76141258 13:-0.87519695 14:-1.0477372 15:-0.36895998 16:-0.9736042 17:-0.63084554 18:-0.63368686 19:-0.92261092 20:-0.67297725 21:-1.0578466 22:-0.84873868 23:-0.84132266 24:-0.68504905 25:-0.79735474 26:-0.96368784 27:-0.63146963 28:-0.71420675 29:-0.75629833 30:-0.69006073 31:-0.67940224 32:-0.64912672 33:-0.28773607 34:-0.64912672 35:-0.67940224 36:-0.69006073 37:-0.75629833 38:-0.71420675 39:-0.63146963 40:-0.96368784 41:-0.79735474 42:-0.68504905 43:-0.84132266 44:-0.84873868 45:-1.0578466 46:-0.67297725 47:-0.92261092 48:-0.63368686 49:-0.63084554 50:-0.9736042 51:-0.36895998 52:-1.0477372 53:-0.87519695 54:-0.76141258 55:-0.73724736 56:-1.2490981 57:-1.1511142 58:-0.57710353 59:-0.89482993 60:-0.32643807 61:-1.0444597 62:-0.62073589 63:-0.23867992 64:-0.59153091 
-0 0 0 0.53048242060138262 1:0.15603474 2:0.63048982 3:-1.2492257 4:-0.30617737 5:-0.78559949 6:0.61489759 7:0.13199289 8:1.6552824 9:1.1995843 10:0.2648002 11:0.7948921 12:0.23916482 13:-0.90369955 14:-0.94653925 15:-0.48764984 16:-1.051863 17:-1.0703847 18:-1.1741506 19:-0.43728675 20:-0.17918335 21:-0.49753284 22:-0.15880645 23:0.35833551 24:0.10809028 25:0.087195276 26:-0.098189699 27:-0.26705129 28:-0.96194143 29:-0.82412288 30:-0.30390655 31:0.0028531785 32:0.60326978 33:0.20448928 34:0.60326978 35:0.0028531785 36:-0.30390655 37:-0.82412288 38:-0.96194143 39:-0.26705129 40:-0.098189699 41:0.087195276 42:0.10809028 43:0.35833551 44:-0.15880645 45:-0.49753284 46:-0.17918335 47:-0.43728675 48:-1.1741506 49:-1.0703847 50:-1.051863 51:-0.48764984 52:-0.94653925 53:-0.90369955 54:0.23916482 55:0.7948921 56:0.2648002 57:1.1995843 58:1.6552824 59:0.13199289 60:0.61489759 61:-0.78559949 62:-0.30617737 63:-1.2492257 64:0.63048982 
-0 0.87754148457279169 0 0 1:-0.4300703 2:0.62108358 3:-1.638789 4:0.043947839 5:0.85422306 6:2.052496 7:0.59061581 8:1.6884449 9:0.80777071 10:-0.98031286 11:-1.1191465 12:-1.1085683 13:-0.56683865 14:-0.61511102 15:-0.2972708 16:-0.5619471 17:-0.11261974 18:-0.26948828 19:-0.85474316 20:-0.64773626 21:-0.68423632 22:-0.54423369 23:0.37850751 24:-0.59118228 25:-0.32533283 26:0.2497654 27:-0.1820897 28:0.091897979 29:-0.14546807 30:-0.8849069 31:-0.6123131 32:-0.61445991 33:-0.62268812 34:-0.61445991 35:-0.6123131 36:-0.8849069 37:-0.14546807 38:0.091897979 39:-0.1820897 40:0.2497654 41:-0.32533283 42:-0.59118228 43:0.37850751 44:-0.54423369 45:-0.68423632 46:-0.64773626 47:-0.85474316 48:-0.26948828 49:-0.11261974 50:-0.5619471 51:-0.2972708 52:-0.61511102 53:-0.56683865 54:-1.1085683 55:-1.1191465 56:-0.98031286 57:0.80777071 58:1.6884449 59:0.59061581 60:2.052496 61:0.85422306 62:0.043947839 63:-1.638789 64:0.62108358 
-0.079235830886907901 1.7939181298981648 0.49415560552845822 1.2633447366709269 1:0.58296153 2:-0.48335873 3:0.11514871 4:-0.3449416 5:1.8828871 6:0.086263548 7:-0.77139019 8:0.23226987 9:1.0813615 10:-0.22429647 11:-0.41515489 12:-1.4839536 13:-0.3178018 14:0.3079572 15:-0.19348044 16:-1.1700494 17:-0.55429167 18:-1.297211 19:-0.50387064 20:-0.53048955 21:-0.83861625 22:-0.14030909 23:0.50804948 24:-0.65260403 25:-0.84739938 26:-1.004522 27:-1.169358 28:-0.039653485 29:0.13186002 30:-0.090174243 31:-0.51519334 32:-0.31995764 33:0.10246593 34:-0.31995764 35:-0.51519334 36:-0.090174243 37:0.13186002 38:-0.039653485 39:-1.169358 40:-1.004522 41:-0.84739938 42:-0.65260403 43:0.50804948 44:-0.14030909 45:-0.83861625 46:-0.53048955 47:-0.50387064 48:-1.297211 49:-0.55429167 50:-1.1700494 51:-0.19348044 52:0.3079572 53:-0.3178018 54:-1.4839536 55:-0.41515489 56:-0.22429647 57:1.0813615 58:0.23226987 59:-0.77139019 60:0.086263548 61:1.8828871 62:-0.3449416 63:0.11514871 64:-0.48335873 
-0 0.0070151437972472532 0 0 1:0.27613009 2:0.56471218 3:-0.85310543 4:-0.55056425 5:-1.0018256 6:0.14649274 7:-0.27796539 8:1.2167827 9:1.1445265 10:0.47730018 11:0.78788923 12:0.19241124 13:-0.39553887 14:-0.85834291 15:-1.4271924 16:-0.52835755 17:0.064828674 18:-0.80134542 19:-0.19998605 20:-0.45779492 21:-0.085571082 22:-0.2902931 23:0.38187375 24:-0.20469477 25:-0.089319801 26:0.52063808 27:-1.1939761 28:-0.56954156 29:-0.81760086 30:-1.0755829 31:-0.80563135 32:-0.27425065 33:-0.76018476 34:-0.27425065 35:-0.80563135 36:-1.0755829 37:-0.81760086 38:-0.56954156 39:-1.1939761 40:0.52063808 41:-0.089319801 42:-0.20469477 43:0.38187375 44:-0.2902931 45:-0.085571082 46:-0.45779492 47:-0.19998605 48:-0.80134542 49:0.064828674 50:-0.52835755 51:-1.4271924 52:-0.85834291 53:-0.39553887 54:0.19241124 55:0.78788923 56:0.47730018 57:1.1445265 58:1.2167827 59:-0.27796539 60:0.14649274 61:-1.0018256 62:-0.55056425 63:-0.85310543 64:0.56471218 
-0 0.98079148725960175 0 3.5450043587868243 1:0.32483945 2:0.41091005 3:-0.84896955 4:-0.69627488 5:-1.0673205 6:-0.2052914 7:-0.29667475 8:1.2789755 9:1.1779707 10:0.4297562 11:1.3351929 12:0.93270611 13:-0.11946702 14:0.19365047 15:-0.16929 16:-0.66079791 17:-0.85332393 18:-0.92100101 19:-0.34596052 20:-0.11892486 21:-0.2370396 22:0.0907821 23:0.86829548 24:0.01118998 25:0.24908521 26:0.64296456 27:-0.73737305 28:-0.68397752 29:-1.3601063 30:-1.2154082 31:0.16283103 32:0.15531718 33:-1.0342364 34:0.15531718 35:0.16283103 36:-1.2154082 37:-1.3601063 38:-0.68397752 39:-0.73737305 40:0.64296456 41:0.24908521 42:0.01118998 43:0.86829548 44:0.0907821 45:-0.2370396 46:-0.11892486 47:-0.34596052 48:-0.92100101 49:-0.85332393 50:-0.66079791 51:-0.16929 52:0.19365047 53:-0.11946702 54:0.93270611 55:1.3351929 56:0.4297562 57:1.1779707 58:1.2789755 59:-0.29667475 60:-0.2052914 61:-1.0673205 62:-0.69627488 63:-0.84896955 64:0.41091005 
-0 0 0 1.1361778301839316 1:1.7251391 2:-1.1543677 3:-1.3642685 4:-0.79111985 5:-0.20609415 6:0.27428254 7:-0.26160665 8:0.73034344 9:1.0998487 10:-0.46794775 11:-0.37518915 12:-0.44581534 13:-0.44138117 14:0.035157836 15:-0.24603054 16:-0.044777389 17:0.34259661 18:0.071363347 19:-0.50733455 20:-0.44336711 21:-0.52262046 22:-1.2440782 23:-1.648581 24:-0.58041413 25:-0.65571266 26:-0.56217512 27:-0.22600791 28:-1.1045986 29:-1.1989945 30:-0.65712773 31:-0.30660735 32:-0.48009532 33:0.005778885 34:-0.48009532 35:-0.30660735 36:-0.65712773 37:-1.1989945 38:-1.1045986 39:-0.22600791 40:-0.56217512 41:-0.65571266 42:-0.58041413 43:-1.648581 44:-1.2440782 45:-0.52262046 46:-0.44336711 47:-0.50733455 48:0.071363347 49:0.34259661 50:-0.044777389 51:-0.24603054 52:0.035157836 53:-0.44138117 54:-0.44581534 55:-0.37518915 56:-0.46794775 57:1.0998487 58:0.73034344 59:-0.26160665 60:0.27428254 61:-0.20609415 62:-0.79111985 63:-1.3642685 64:-1.1543677 
-0 0 0 0.095790598664945437 1:0.64567009 2:-0.83872131 3:-1.0764106 4:-0.8951762 5:2.5248879 6:2.3373928 7:-0.20554575 8:-0.6916132 9:-0.36702225 10:0.061542938 11:1.1118368 12:0.95405508 13:-0.84092545 14:-1.3191358 15:-1.5439961 16:-0.23479306 17:-0.51221918 18:-0.69750404 19:-0.61575575 20:0.38279858 21:-0.66658628 22:-0.54248109 23:-1.106836 24:-0.97857946 25:-0.51449479 26:-0.34559108 27:-1.1806883 28:-0.24179118 29:0.28520309 30:-0.97661804 31:-0.24736008 32:-0.59442314 33:-1.0188544 34:-0.59442314 35:-0.24736008 36:-0.97661804 37:0.28520309 38:-0.24179118 39:-1.1806883 40:-0.34559108 41:-0.51449479 42:-0.97857946 43:-1.106836 44:-0.54248109 45:-0.66658628 46:0.38279858 47:-0.61575575 48:-0.69750404 49:-0.51221918 50:-0.23479306 51:-1.5439961 52:-1.3191358 53:-0.84092545 54:0.95405508 55:1.1118368 56:0.061542938 57:-0.36702225 58:-0.6916132 59:-0.20554575 60:2.3373928 61:2.5248879 62:-0.8951762 63:-1.0764106 64:-0.83872131 
-0.1246269536019433 1.6885784896828395 1.1138230034165495 1.0650478962177923 1:-2.0467314 2:-0.061629081 3:0.17176732 4:1.3465896 5:2.0625855 6:2.7422683 7:2.1148872 8:-0.63390851 9:-1.2225295 10:-1.1384986 11:-0.019521457 12:0.26090448 13:-0.35111524 14:-0.68595171 15:-0.022698049 16:-0.23240961 17:-0.577097 18:-0.56767774 19:-1.0389487 20:-0.087045207 21:0.027996668 22:-0.32574398 23:-0.31119853 24:0.38483324 25:-0.27091332 26:-0.77155913 27:-0.060412482 28:-0.30935854 29:0.45381988 30:0.33017686 31:-0.31331613 32:-0.64758055 33:0.45782231 34:-0.64758055 35:-0.31331613 36:0.33017686 37:0.45381988 38:-0.30935854 39:-0.060412482 40:-0.77155913 41:-0.27091332 42:0.38483324 43:-0.31119853 44:-0.32574398 45:0.027996668 46:-0.087045207 47:-1.0389487 48:-0.56767774 49:-0.577097 50:-0.23240961 51:-0.022698049 52:-0.68595171 53:-0.35111524 54:0.26090448 55:-0.019521457 56:-1.1384986 57:-1.2225295 58:-0.63390851 59:2.1148872 60:2.7422683 61:2.0625855 62:1.3465896 63:0.17176732 64:-0.061629081 
-0 0.97181639530182606 0 0.48864216526854648 1:1.4418996 2:-2.7250675 3:-1.8913511 4:-0.45465896 5:2.9592582 6:2.3385685 7:-0.37197623 8:-0.42727041 9:-0.97829993 10:0.04685389 11:0.077107096 12:0.063718689 13:-0.61248926 14:-0.77433391 15:-0.014633487 16:-0.55752589 17:-0.95777513 18:-1.0757924 19:-0.93360348 20:-0.32316045 21:-0.27443215 22:-0.47661614 23:-1.1601012 24:-0.11204227 25:-1.1241072 26:-1.2263399 27:-0.51270241 28:-0.85119103 29:-0.63682232 30:0.13354412 31:-0.89584606 32:-0.85427846 33:-0.29935108 34:-0.85427846 35:-0.89584606 36:0.13354412 37:-0.63682232 38:-0.85119103 39:-0.51270241 40:-1.2263399 41:-1.1241072 42:-0.11204227 43:-1.1601012 44:-0.47661614 45:-0.27443215 46:-0.32316045 47:-0.93360348 48:-1.0757924 49:-0.95777513 50:-0.55752589 51:-0.014633487 52:-0.77433391 53:-0.61248926 54:0.063718689 55:0.077107096 56:0.04685389 57:-0.97829993 58:-0.42727041 59:-0.37197623 60:2.3385685 61:2.9592582 62:-0.45465896 63:-1.8913511 64:-2.7250675 
-0 2.0279807951335802 0 0 1:1.0537165 2:-1.3007655 3:-0.24152062 4:-0.7303667 5:2.351894 6:0.8838637 7:-1.2951439 8:0.14061417 9:0.78688288 10:-0.61025375 11:-0.799617 12:-1.178914 13:-0.17041528 14:-0.037084855 15:-0.53525522 16:-0.98301203 17:-0.074846628 18:-0.41108301 19:-0.63291957 20:-1.0888938 21:-1.0509256 22:-0.076139168 23:0.20349464 24:-0.40513465 25:-1.0873975 26:-0.66202925 27:-0.79836437 28:-0.57633417 29:-1.1516212 30:-0.86756372 31:0.05192698 32:-0.21533078 33:-0.75202257 34:-0.21533078 35:0.05192698 36:-0.86756372 37:-1.1516212 38:-0.57633417 39:-0.79836437 40:-0.66202925 41:-1.0873975 42:-0.40513465 43:0.20349464 44:-0.076139168 45:-1.0509256 46:-1.0888938 47:-0.63291957 48:-0.41108301 49:-0.074846628 50:-0.98301203 51:-0.53525522 52:-0.037084855 53:-0.17041528 54:-1.178914 55:-0.799617 56:-0.61025375 57:0.78688288 58:0.14061417 59:-1.2951439 60:0.8838637 61:2.351894 62:-0.7303667 63:-0.24152062 64:-1.3007655 
-0 0.83596394807595509 0 2.5597330530555529 1:1.1016123 2:-0.19641003 3:-0.49107148 4:-0.71552888 5:-1.4326213 6:-1.5425131 7:-0.58191359 8:0.57139316 9:0.76006629 10:-0.12958198 11:1.3007627 12:1.7072834 13:-0.1761604 14:1.063776 15:0.7509381 16:-0.22829436 17:0.43026131 18:-0.2404189 19:0.39062608 20:1.6446383 21:-0.11664376 22:0.33007636 23:1.9057365 24:-0.13763922 25:-0.65263568 26:-1.117488 27:-0.74644342 28:-0.16293786 29:-0.26353536 30:-0.62510495 31:-0.81068372 32:-0.77417831 33:-0.5652405 34:-0.77417831 35:-0.81068372 36:-0.62510495 37:-0.26353536 38:-0.16293786 39:-0.74644342 40:-1.117488 41:-0.65263568 42:-0.13763922 43:1.9057365 44:0.33007636 45:-0.11664376 46:1.6446383 47:0.39062608 48:-0.2404189 49:0.43026131 50:-0.22829436 51:0.7509381 52:1.063776 53:-0.1761604 54:1.7072834 55:1.3007627 56:-0.12958198 57:0.76006629 58:0.57139316 59:-0.58191359 60:-1.5425131 61:-1.4326213 62:-0.71552888 63:-0.49107148 64:-0.19641003 
-0.053011260408073184 0.19639922278092189 0.41408823857890176 0.11069366068894522 1:0.1456962 2:0.47385315 3:-0.73482193 4:-0.53392234 5:-0.83797433 6:0.05769133 7:0.10703665 8:0.6316367 9:1.1976465 10:-0.073932226 11:0.059460075 12:0.38903067 13:-0.69094797 14:-1.0526094 15:-0.40271363 16:-0.11230964 17:0.58078495 18:0.39013113 19:0.62871347 20:0.85648494 21:0.33220198 22:0.33639097 23:-0.83183948 24:-0.62283196 25:-1.2564704 26:-0.61366688 27:-0.72165743 28:-0.24124737 29:0.461719 30:-0.51934403 31:-0.054269628 32:0.023723564 33:-0.089025041 34:0.023723564 35:-0.054269628 36:-0.51934403 37:0.461719 38:-0.24124737 39:-0.72165743 40:-0.61366688 41:-1.2564704 42:-0.62283196 43:-0.83183948 44:0.33639097 45:0.33220198 46:0.85648494 47:0.62871347 48:0.39013113 49:0.58078495 50:-0.11230964 51:-0.40271363 52:-1.0526094 53:-0.69094797 54:0.38903067 55:0.059460075 56:-0.073932226 57:1.1976465 58:0.6316367 59:0.10703665 60:0.05769133 61:-0.83797433 62:-0.53392234 63:-0.73482193 64:0.47385315 
-0 1.4725925395113095 1.0947229751190009 1.5172192213684959 1:-1.2540949 2:0.79178774 3:-0.03139935 4:-0.17124864 5:-0.17264683 6:0.73687673 7:0.043995012 8:0.92841072 9:1.2941907 10:0.79854958 11:-0.20621456 12:-0.53586033 13:0.024602459 14:0.58995403 15:1.944329 16:0.92966176 17:2.1176304 18:1.6395841 19:1.2083818 20:0.97268828 21:0.0086028541 22:0.15268762 23:2.0672186 24:1.3910033 25:0.91552134 26:2.2068224 27:-0.18092134 28:0.29905911 29:-0.77695446 30:0.5764896 31:-0.90139945 32:-0.20704163 33:-0.88951954 34:-0.20704163 35:-0.90139945 36:0.5764896 37:-0.77695446 38:0.29905911 39:-0.18092134 40:2.2068224 41:0.91552134 42:1.3910033 43:2.0672186 44:0.15268762 45:0.0086028541 46:0.97268828 47:1.2083818 48:1.6395841 49:2.1176304 50:0.92966176 51:1.944329 52:0.58995403 53:0.024602459 54:-0.53586033 55:-0.20621456 56:0.79854958 57:1.2941907 58:0.92841072 59:0.043995012 60:0.73687673 61:-0.17264683 62:-0.17124864 63:-0.03139935 64:0.79178774 
-0.34491309129586922 0.74732103800339189 0.77239036590424048 1.525545616455565 1:1.1017819 2:-0.75947962 3:-0.75512212 4:-0.78276403 5:-0.53270499 6:-0.079756921 7:-1.2002579 8:0.34624773 9:1.5717454 10:-0.94364406 11:-0.43071334 12:0.37658356 13:-0.63976997 14:0.30830522 15:0.7997217 16:-0.2562971 17:0.76888945 18:2.5873126 19:0.018086826 20:0.29386154 21:1.0271452 22:-0.093557651 23:-0.58991838 24:-0.42885787 25:-0.81917882 26:-0.63380204 27:0.16235607 28:-0.61077182 29:-1.2732747 30:0.18272744 31:-0.44952305 32:-0.29102356 33:1.7185228 34:-0.29102356 35:-0.44952305 36:0.18272744 37:-1.2732747 38:-0.61077182 39:0.16235607 40:-0.63380204 41:-0.81917882 42:-0.42885787 43:-0.58991838 44:-0.093557651 45:1.0271452 46:0.29386154 47:0.018086826 48:2.5873126 49:0.76888945 50:-0.2562971 51:0.7997217 52:0.30830522 53:-0.63976997 54:0.37658356 55:-0.43071334 56:-0.94364406 57:1.5717454 58:0.34624773 59:-1.2002579 60:-0.079756921 61:-0.53270499 62:-0.78276403 63:-0.75512212 64:-0.75947962 
-0 0.87573523321818603 0.38748187354619745 1.3260189318623661 1:0.85826921 2:-0.90156601 3:-1.555844 4:-0.34171939 5:1.7999899 6:1.6845886 7:-0.80296205 8:-0.35250194 9:-0.57687949 10:0.096739714 11:1.3493515 12:1.5070961 13:0.0087317462 14:-0.31682022 15:-0.81986671 16:0.17082246 17:0.42974127 18:-0.39639624 19:-0.88493618 20:-0.93483955 21:-0.33490356 22:-1.0179435 23:-1.7474629 24:-1.0882757 25:0.39621289 26:1.6155019 27:-0.30766477 28:-0.8144846 29:-0.74600325 30:-0.29050891 31:0.21368863 32:0.65066831 33:-0.70242368 34:0.65066831 35:0.21368863 36:-0.29050891 37:-0.74600325 38:-0.8144846 39:-0.30766477 40:1.6155019 41:0.39621289 42:-1.0882757 43:-1.7474629 44:-1.0179435 45:-0.33490356 46:-0.93483955 47:-0.88493618 48:-0.39639624 49:0.42974127 50:0.17082246 51:-0.81986671 52:-0.31682022 53:0.0087317462 54:1.5070961 55:1.3493515 56:0.096739714 57:-0.57687949 58:-0.35250194 59:-0.80296205 60:1.6845886 61:1.7999899 62:-0.34171939 63:-1.555844 64:-0.90156601 
-0 0 0.86736451816322668 0.50678404336668881 1:-1.2459258 2:1.12439 3:-0.74687029 4:0.20650972 5:-0.6921919 6:1.6122394 7:1.1024168 8:1.0538859 9:0.88444637 10:0.76311449 11:-0.70756624 12:-1.3965839 13:-0.68989098 14:-0.42920499 15:0.058484178 16:-0.8254079 17:-0.34751723 18:0.24462882 19:-0.49845622 20:-0.87066615 21:-0.11126728 22:-0.64993888 23:-0.61344793 24:-0.11924441 25:-0.68985022 26:0.10248718 27:0.52067467 28:-0.1779562 29:-0.89370699 30:-0.18254728 31:-1.3003594 32:-0.30579119 33:0.5366164 34:-0.30579119 35:-1.3003594 36:-0.18254728 37:-0.89370699 38:-0.1779562 39:0.52067467 40:0.10248718 41:-0.68985022 42:-0.11924441 43:-0.61344793 44:-0.64993888 45:-0.11126728 46:-0.87066615 47:-0.49845622 48:0.24462882 49:-0.34751723 50:-0.8254079 51:0.058484178 52:-0.42920499 53:-0.68989098 54:-1.3965839 55:-0.70756624 56:0.76311449 57:0.88444637 58:1.0538859 59:1.1024168 60:1.6122394 61:-0.6921919 62:0.20650972 63:-0.74687029 64:1.12439 
-0 1.6867759097754791 0 0.79194061758697798 1:1.8874695 2:-1.5616626 3:-1.6423893 4:-0.81847116 5:0.36918629 6:0.46789964 7:0.54240826 8:0.86001637 9:0.77815115 10:-0.17090681 11:-0.271303 12:-0.38550588 13:-1.0562876 14:-0.99259894 15:-0.95428367 16:-0.89338819 17:-0.89689972 18:-1.3697488 19:-1.08995 20:-0.61206296 21:-0.88322126 22:-0.81701748 23:-0.72144755 24:-0.51311445 25:0.22398232 26:-0.046570498 27:-0.52268786 28:-0.27082962 29:-0.52889459 30:-0.65367467 31:-1.1257307 32:-1.3952437 33:-0.27266792 34:-1.3952437 35:-1.1257307 36:-0.65367467 37:-0.52889459 38:-0.27082962 39:-0.52268786 40:-0.046570498 41:0.22398232 42:-0.51311445 43:-0.72144755 44:-0.81701748 45:-0.88322126 46:-0.61206296 47:-1.08995 48:-1.3697488 49:-0.89689972 50:-0.89338819 51:-0.95428367 52:-0.99259894 53:-1.0562876 54:-0.38550588 55:-0.271303 56:-0.17090681 57:0.77815115 58:0.86001637 59:0.54240826 60:0.46789964 61:0.36918629 62:-0.81847116 63:-1.6423893 64:-1.5616626 
-0 0.82413816532885942 0.24070909229715379 0.13703576759748556 1:0.48289901 2:-0.94469642 3:-0.36550624 4:-0.72228332 5:3.2659392 6:2.0106648 7:-0.1675943 8:-1.3057035 9:-0.93223413 10:-0.31249921 11:-0.081804368 12:0.80205982 13:-0.99078722 14:-0.055039886 15:-1.4184152 16:-0.65567317 17:-0.75850212 18:-0.9292581 19:-0.39865893 20:0.25322801 21:-0.2541029 22:-0.28508126 23:-0.63973367 24:-0.96651777 25:-0.57472092 26:0.13757673 27:-0.46998321 28:-0.50272906 29:-0.089904755 30:-1.144964 31:0.065193979 32:-0.48438456 33:-0.50528225 34:-0.48438456 35:0.065193979 36:-1.144964 37:-0.089904755 38:-0.50272906 39:-0.46998321 40:0.13757673 41:-0.57472092 42:-0.96651777 43:-0.63973367 44:-0.28508126 45:-0.2541029 46:0.25322801 47:-0.39865893 48:-0.9292581 49:-0.75850212 50:-0.65567317 51:-1.4184152 52:-0.055039886 53:-0.99078722 54:0.80205982 55:-0.081804368 56:-0.31249921 57:-0.93223413 58:-1.3057035 59:-0.1675943 60:2.0106648 61:3.2659392 62:-0.72228332 63:-0.36550624 64:-0.94469642 
-0.56999044677502253 1.1686534330802001 1.8124327234628501 1.8821256786634915 1:-0.11456124 2:0.68803693 3:-0.24155443 4:-0.87487569 5:-2.1633106 6:-1.9760348 7:-0.57603378 8:-0.10309494 9:0.12487108 10:0.5465067 11:0.87130346 12:0.91270407 13:1.1019696 14:1.1605486 15:0.39078685 16:0.68444591 17:0.53243793 18:-0.22111886 19:-0.24011958 20:-0.19317969 21:-0.33051045 22:-1.3451042 23:-1.3698351 24:-0.20909577 25:-1.0436179 26:-0.0026206411 27:0.0443807 28:-0.58645865 29:1.6139646 30:0.49018495 31:0.85230963 32:1.6667048 33:0.72842122 34:1.6667048 35:0.85230963 36:0.49018495 37:1.6139646 38:-0.58645865 39:0.0443807 40:-0.0026206411 41:-1.0436179 42:-0.20909577 43:-1.3698351 44:-1.3451042 45:-0.33051045 46:-0.19317969 47:-0.24011958 48:-0.22111886 49:0.53243793 50:0.68444591 51:0.39078685 52:1.1605486 53:1.1019696 54:0.91270407 55:0.87130346 56:0.5465067 57:0.12487108 58:-0.10309494 59:-0.57603378 60:-1.9760348 61:-2.1633106 62:-0.87487569 63:-0.24155443 64:0.68803693 
-0 0 0 1.255418225347056 1:-0.27807819 2:0.51497968 3:-0.49178479 4:-0.6012902 5:0.13785002 6:0.50614554 7:-0.41765369 8:1.3936791 9:1.1625335 10:-0.14962673 11:-0.23108467 12:0.0023115583 13:-0.5449012 14:0.93428605 15:0.75731962 16:0.77774409 17:1.7730447 18:1.2785449 19:0.49224058 20:0.457057 21:0.20167468 22:-0.56570076 23:0.75946491 24:-0.47771709 25:0.51094585 26:1.5860972 27:-0.43386434 28:0.89204701 29:1.0681356 30:-0.15504005 31:0.36426322 32:-1.1500717 33:-0.080863341 34:-1.1500717 35:0.36426322 36:-0.15504005 37:1.0681356 38:0.89204701 39:-0.43386434 40:1.5860972 41:0.51094585 42:-0.47771709 43:0.75946491 44:-0.56570076 45:0.20167468 46:0.457057 47:0.49224058 48:1.2785449 49:1.7730447 50:0.77774409 51:0.75731962 52:0.93428605 53:-0.5449012 54:0.0023115583 55:-0.23108467 56:-0.14962673 57:1.1625335 58:1.3936791 59:-0.41765369 60:0.50614554 61:0.13785002 62:-0.6012902 63:-0.49178479 64:0.51497968 
-0 0.58307706101417323 0.35019226574858137 0.11416613577496459 1:-0.48206743 2:0.9497398 3:-0.42747247 4:-0.84534868 5:-1.2755493 6:-0.55030009 7:-0.56800784 8:0.69565634 9:0.93709241 10:-0.020515015 11:1.3320171 12:0.99890089 13:-0.24337644 14:0.67490056 15:-0.35770407 16:-0.72806931 17:-0.095096832 18:-0.20800521 19:0.070846185 20:1.4669355 21:0.56275732 22:1.0128219 23:2.456817 24:0.27279542 25:0.7345904 26:0.23035257 27:-0.96407492 28:-0.55881684 29:-0.65007384 30:-0.90164959 31:-1.0456178 32:-0.1955893 33:-0.55488123 34:-0.1955893 35:-1.0456178 36:-0.90164959 37:-0.65007384 38:-0.55881684 39:-0.96407492 40:0.23035257 41:0.7345904 42:0.27279542 43:2.456817 44:1.0128219 45:0.56275732 46:1.4669355 47:0.070846185 48:-0.20800521 49:-0.095096832 50:-0.72806931 51:-0.35770407 52:0.67490056 53:-0.24337644 54:0.99890089 55:1.3320171 56:-0.020515015 57:0.93709241 58:0.69565634 59:-0.56800784 60:-0.55030009 61:-1.2755493 62:-0.84534868 63:-0.42747247 64:0.9497398 
-0 0.20295427704476471 0 0.2062507205725724 1:1.5847055 2:-0.95303658 3:-1.0681368 4:-0.89577497 5:-0.49854656 6:-0.23698602 7:-0.48306127 8:0.46523992 9:0.89194413 10:-0.5005574 11:-0.37289568 12:-0.12949905 13:-0.26642237 14:0.26486069 15:0.37266025 16:0.70001911 17:1.1367817 18:1.0428475 19:0.58526099 20:0.57081469 21:-0.30122885 22:0.22875668 23:0.6603153 24:-0.37742363 25:0.68245186 26:1.275483 27:-0.28780834 28:-0.17258422 29:-0.14407791 30:-0.54879779 31:-1.2582683 32:-1.2317284 33:0.44997438 34:-1.2317284 35:-1.2582683 36:-0.54879779 37:-0.14407791 38:-0.17258422 39:-0.28780834 40:1.275483 41:0.68245186 42:-0.37742363 43:0.6603153 44:0.22875668 45:-0.30122885 46:0.57081469 47:0.58526099 48:1.0428475 49:1.1367817 50:0.70001911 51:0.37266025 52:0.26486069 53:-0.26642237 54:-0.12949905 55:-0.37289568 56:-0.5005574 57:0.89194413 58:0.46523992 59:-0.48306127 60:-0.23698602 61:-0.49854656 62:-0.89577497 63:-1.0681368 64:-0.95303658 
-0.40111826949875418 0.5926848230426045 1.0829606322242067 0.1153142947092469 1:0.24955509 2:0.49508427 3:-0.42342443 4:-0.82675558 5:0.047156555 6:0.5904156 7:-0.12814928 8:0.32336127 9:0.047433202 10:-0.86820906 11:-1.3656654 12:-0.37440047 13:0.22315987 14:0.85832777 15:1.1184869 16:0.278168 17:0.075644376 18:-0.079051086 19:-0.43938943 20:0.04009858 21:-0.084991175 22:0.83179034 23:2.0645532 24:-0.11075959 25:-0.56379887 26:-1.2714056 27:-0.92853726 28:-0.40538206 29:0.54866469 30:-1.0028074 31:-0.055926013 32:-0.13477488 33:-0.59757427 34:-0.13477488 35:-0.055926013 36:-1.0028074 37:0.54866469 38:-0.40538206 39:-0.92853726 40:-1.2714056 41:-0.56379887 42:-0.11075959 43:2.0645532 44:0.83179034 45:-0.084991175 46:0.04009858 47:-0.43938943 48:-0.079051086 49:0.075644376 50:0.278168 51:1.1184869 52:0.85832777 53:0.22315987 54:-0.37440047 55:-1.3656654 56:-0.86820906 57:0.047433202 58:0.32336127 59:-0.12814928 60:0.5904156 61:0.047156555 62:-0.82675558 63:-0.42342443 64:0.49508427 
-0 0.13640380967383617 0 0 1:0.58848665 2:0.47577994 3:-0.87249017 4:-0.085675151 5:-1.3342829 6:0.035098387 7:-0.53101265 8:0.95515785 9:1.0063757 10:-0.063482311 11:0.38935549 12:0.17749921 13:-0.84930719 14:-0.77668943 15:-0.80884196 16:-0.68380316 17:-0.22515209 18:-0.930074 19:-0.67556015 20:-0.84026475 21:-1.1380419 22:-0.74752956 23:-0.048084037 24:-0.73747683 25:-0.094441231 26:-0.32596664 27:-0.78029973 28:-0.16304052 29:-0.83604606 30:-1.0793361 31:-0.64744093 32:-0.15497504 33:-0.96517402 34:-0.15497504 35:-0.64744093 36:-1.0793361 37:-0.83604606 38:-0.16304052 39:-0.78029973 40:-0.32596664 41:-0.094441231 42:-0.73747683 43:-0.048084037 44:-0.74752956 45:-1.1380419 46:-0.84026475 47:-0.67556015 48:-0.930074 49:-0.22515209 50:-0.68380316 51:-0.80884196 52:-0.77668943 53:-0.84930719 54:0.17749921 55:0.38935549 56:-0.063482311 57:1.0063757 58:0.95515785 59:-0.53101265 60:0.035098387 61:-1.3342829 62:-0.085675151 63:-0.87249017 64:0.47577994 
-0 0.23105603812738884 0 0 1:1.1231705 2:-0.40006386 3:-0.97425836 4:-0.56219253 5:0.11628609 6:1.351712 7:-0.11050532 8:1.1386996 9:0.78417224 10:-0.5608665 11:-0.92390155 12:-1.3305173 13:-0.88515679 14:-0.16449208 15:-0.63188931 16:-0.18797027 17:0.0064166067 18:-0.052672996 19:-0.091175362 20:-0.37022249 21:-0.26456306 22:-1.0045835 23:-1.1072779 24:-0.52667823 25:-0.54665134 26:-0.38479124 27:-0.71148891 28:-0.20355814 29:-0.72612077 30:-0.24353152 31:-0.41000111 32:-0.30419 33:-0.45285756 34:-0.30419 35:-0.41000111 36:-0.24353152 37:-0.72612077 38:-0.20355814 39:-0.71148891 40:-0.38479124 41:-0.54665134 42:-0.52667823 43:-1.1072779 44:-1.0045835 45:-0.26456306 46:-0.37022249 47:-0.091175362 48:-0.052672996 49:0.0064166067 50:-0.18797027 51:-0.63188931 52:-0.16449208 53:-0.88515679 54:-1.3305173 55:-0.92390155 56:-0.5608665 57:0.78417224 58:1.1386996 59:-0.11050532 60:1.351712 61:0.11628609 62:-0.56219253 63:-0.97425836 64:-0.40006386 
-1.2468871249848739 1.3966970377157089 1.4962610739895799 0.11722415205478219 1:0.40073378 2:0.76422862 3:-0.35015265 4:-0.35436833 5:-1.9736601 6:-1.5432483 7:-0.98166857 8:-0.14558819 9:0.21511999 10:-0.43249137 11:0.91428738 12:0.6549414 13:0.064133705 14:0.82586401 15:-0.097552102 16:-0.30318127 17:-0.66277044 18:-0.89949851 19:-1.2343498 20:-0.37773292 21:-1.1667428 22:-0.18504422 23:1.2112258 24:-1.2110624 25:-0.015684214 26:0.056410203 27:-1.082993 28:-0.73561465 29:-1.0318288 30:-0.84820667 31:-0.51742349 32:-0.29795871 33:-0.69112246 34:-0.29795871 35:-0.51742349 36:-0.84820667 37:-1.0318288 38:-0.73561465 39:-1.082993 40:0.056410203 41:-0.015684214 42:-1.2110624 43:1.2112258 44:-0.18504422 45:-1.1667428 46:-0.37773292 47:-1.2343498 48:-0.89949851 49:-0.66277044 50:-0.30318127 51:-0.097552102 52:0.82586401 53:0.064133705 54:0.6549414 55:0.91428738 56:-0.43249137 57:0.21511999 58:-0.14558819 59:-0.98166857 60:-1.5432483 61:-1.9736601 62:-0.35436833 63:-0.35015265 64:0.76422862 
-0.59024716335499849 0 0 0 1:0.25941911 2:0.66186437 3:-0.68711334 4:-0.64346798 5:-0.80994615 6:0.23310421 7:-0.45311702 8:0.88240539 9:0.67628645 10:-0.11045705 11:0.10147763 12:-0.64991472 13:-1.1382856 14:-0.44322544 15:-0.61811233 16:-0.27599055 17:0.96944774 18:-0.12921487 19:-0.20384306 20:0.18338365 21:-0.84351478 22:-0.7995235 23:-0.32323625 24:-0.74758778 25:-0.48223646 26:0.8663818 27:-1.2985435 28:-0.50582689 29:-0.59707788 30:-0.75947742 31:0.30943423 32:-0.33092042 33:-0.31096609 34:-0.33092042 35:0.30943423 36:-0.75947742 37:-0.59707788 38:-0.50582689 39:-1.2985435 40:0.8663818 41:-0.48223646 42:-0.74758778 43:-0.32323625 44:-0.7995235 45:-0.84351478 46:0.18338365 47:-0.20384306 48:-0.12921487 49:0.96944774 50:-0.27599055 51:-0.61811233 52:-0.44322544 53:-1.1382856 54:-0.64991472 55:0.10147763 56:-0.11045705 57:0.67628645 58:0.88240539 59:-0.45311702 60:0.23310421 61:-0.80994615 62:-0.64346798 63:-0.68711334 64:0.66186437 
-1.6880612553500258 0 1.0273402682244717 0 1:-0.46254321 2:1.1245199 3:-0.78976848 4:-0.73232617 5:-1.0754995 6:0.32527355 7:-0.22519044 8:0.67240253 9:0.9731423 10:-0.045081039 11:0.59105695 12:-0.1857271 13:-0.70408842 14:-0.96975361 15:-1.0843476 16:-0.879348 17:0.00022846655 18:-0.17519811 19:-0.12999811 20:0.1935211 21:-0.23507991 22:-0.39446727 23:-0.58140069 24:-0.81308757 25:-0.5706554 26:0.28273533 27:-0.5608423 28:-0.2211633 29:0.0076478791 30:-0.5853994 31:-0.30866538 32:-1.0599627 33:-1.0069252 34:-1.0599627 35:-0.30866538 36:-0.5853994 37:0.0076478791 38:-0.2211633 39:-0.5608423 40:0.28273533 41:-0.5706554 42:-0.81308757 43:-0.58140069 44:-0.39446727 45:-0.23507991 46:0.1935211 47:-0.12999811 48:-0.17519811 49:0.00022846655 50:-0.879348 51:-1.0843476 52:-0.96975361 53:-0.70408842 54:-0.1857271 55:0.59105695 56:-0.045081039 57:0.9731423 58:0.67240253 59:-0.22519044 60:0.32527355 61:-1.0754995 62:-0.73232617 63:-0.78976848 64:1.1245199 
-0.53924304828373626 2.161068242436933 0.71449111378898589 0.9602629508308127 1:1.1554401 2:-0.2346969 3:-0.23743154 4:-0.20253073 5:-0.18144249 6:-0.29577744 7:-1.3420192 8:0.94868765 9:0.011505714 10:-0.79270765 11:-0.38074507 12:-1.2958196 13:-0.89668087 14:1.0282339 15:0.1986908 16:0.28280473 17:1.1959928 18:0.20399915 19:-0.33683387 20:-0.48239064 21:-1.0028003 22:-0.52836559 23:-0.41178854 24:-0.83499096 25:0.643768 26:0.58616272 27:-0.00076984062 28:0.78441622 29:0.64308012 30:0.13622311 31:-0.86788583 32:-0.32423447 33:-0.60353857 34:-0.32423447 35:-0.86788583 36:0.13622311 37:0.64308012 38:0.78441622 39:-0.00076984062 40:0.58616272 41:0.643768 42:-0.83499096 43:-0.41178854 44:-0.52836559 45:-1.0028003 46:-0.48239064 47:-0.33683387 48:0.20399915 49:1.1959928 50:0.28280473 51:0.1986908 52:1.0282339 53:-0.89668087 54:-1.2958196 55:-0.38074507 56:-0.79270765 57:0.011505714 58:0.94868765 59:-1.3420192 60:-0.29577744 61:-0.18144249 62:-0.20253073 63:-0.23743154 64:-0.2346969 
-0 0 0.5842714066597583 0 1:0.41205509 2:-0.094609287 3:-1.0810434 4:-0.85753703 5:1.4664292 6:1.7045821 7:-0.008672157 8:-0.81272014 9:-1.0484904 10:-0.76987871 11:0.84936699 12:0.88104416 13:-0.22718842 14:-0.73158901 15:-1.2881289 16:-0.60146045 17:0.46295425 18:-0.33459476 19:-0.76335139 20:-1.4122226 21:-0.74859522 22:-0.2836232 23:0.79018875 24:-0.93782538 25:-0.88575693 26:-1.1109605 27:-0.82428696 28:-0.242219 29:0.47431275 30:-1.1719084 31:-0.28970453 32:-0.55416431 33:-1.0113202 34:-0.55416431 35:-0.28970453 36:-1.1719084 37:0.47431275 38:-0.242219 39:-0.82428696 40:-1.1109605 41:-0.88575693 42:-0.93782538 43:0.79018875 44:-0.2836232 45:-0.74859522 46:-1.4122226 47:-0.76335139 48:-0.33459476 49:0.46295425 50:-0.60146045 51:-1.2881289 52:-0.73158901 53:-0.22718842 54:0.88104416 55:0.84936699 56:-0.76987871 57:-1.0484904 58:-0.81272014 59:-0.008672157 60:1.7045821 61:1.4664292 62:-0.85753703 63:-1.0810434 64:-0.094609287 
-0 0.35598957843909218 0 0 1:-2.0368337 2:0.691873 3:0.030757031 4:0.58152065 5:1.0566715 6:1.9433263 7:0.35995035 8:0.57630362 9:-0.034707939 10:-0.022641227 11:-0.66942811 12:-0.94944161 13:-1.0568337 14:-0.64987224 15:0.11100137 16:-0.61497556 17:-0.13859296 18:-0.24553874 19:-0.76755531 20:-0.65089203 21:-0.21430901 22:-0.54157378 23:-0.51608918 24:-0.4798255 25:-0.46900379 26:0.18684349 27:0.3150627 28:0.0074069359 29:-0.29188658 30:-0.044655024 31:-0.25283013 32:-0.71470455 33:-0.24347333 34:-0.71470455 35:-0.25283013 36:-0.044655024 37:-0.29188658 38:0.0074069359 39:0.3150627 40:0.18684349 41:-0.46900379 42:-0.4798255 43:-0.51608918 44:-0.54157378 45:-0.21430901 46:-0.65089203 47:-0.76755531 48:-0.24553874 49:-0.13859296 50:-0.61497556 51:0.11100137 52:-0.64987224 53:-1.0568337 54:-0.94944161 55:-0.66942811 56:-0.022641227 57:-0.034707939 58:0.57630362 59:0.35995035 60:1.9433263 61:1.0566715 62:0.58152065 63:0.030757031 64:0.691873 
-0.21119539098569393 0.26328773480459533 0.43865274766297524 0 1:2.0925095 2:-1.9988957 3:-2.3717343 4:-0.59631943 5:0.76538682 6:1.2550691 7:-0.37604556 8:-0.020233782 9:-0.38855307 10:-0.95301096 11:-1.128943 12:-0.98817623 13:-0.80971284 14:-0.87088017 15:-0.87425162 16:-0.82602145 17:-0.66534482 18:-0.84461924 19:-1.1648765 20:-0.8041077 21:-0.87875045 22:-0.73410128 23:-0.82518095 24:-0.38339129 25:-0.65988606 26:-0.45372784 27:-0.46464254 28:-0.66271926 29:-0.69987725 30:-0.2462781 31:-1.044429 32:-0.85097791 33:-0.93723497 34:-0.85097791 35:-1.044429 36:-0.2462781 37:-0.69987725 38:-0.66271926 39:-0.46464254 40:-0.45372784 41:-0.65988606 42:-0.38339129 43:-0.82518095 44:-0.73410128 45:-0.87875045 46:-0.8041077 47:-1.1648765 48:-0.84461924 49:-0.66534482 50:-0.82602145 51:-0.87425162 52:-0.87088017 53:-0.80971284 54:-0.98817623 55:-1.128943 56:-0.95301096 57:-0.38855307 58:-0.020233782 59:-0.37604556 60:1.2550691 61:0.76538682 62:-0.59631943 63:-2.3717343 64:-1.9988957 
-0.85486053426622033 0.98929740857330195 0.40212028233495806 0 1:0.70448055 2:-0.78840005 3:0.048770748 4:-0.3355761 5:2.559497 6:0.94121253 7:-0.92919992 8:-0.82002433 9:0.0023565402 10:-0.39181275 11:-0.48448495 12:-0.4971436 13:-0.41534015 14:-0.33218654 15:-0.80068556 16:-0.92714508 17:-0.48742949 18:-0.74754545 19:-0.77033789 20:-0.75260425 21:-0.93533392 22:-0.70316772 23:0.07348318 24:-0.76387196 25:-0.63716836 26:-0.15458808 27:-1.0496127 28:-0.20743422 29:-0.59752626 30:-0.65172664 31:-0.34672254 32:-0.27064812 33:-0.20925617 34:-0.27064812 35:-0.34672254 36:-0.65172664 37:-0.59752626 38:-0.20743422 39:-1.0496127 40:-0.15458808 41:-0.63716836 42:-0.76387196 43:0.07348318 44:-0.70316772 45:-0.93533392 46:-0.75260425 47:-0.77033789 48:-0.74754545 49:-0.48742949 50:-0.92714508 51:-0.80068556 52:-0.33218654 53:-0.41534015 54:-0.4971436 55:-0.48448495 56:-0.39181275 57:0.0023565402 58:-0.82002433 59:-0.92919992 60:0.94121253 61:2.559497 62:-0.3355761 63:0.048770748 64:-0.78840005 
-0.14769410293780524 0 0 0 1:0.65912694 2:0.50061019 3:-0.94517869 4:-0.47981424 5:-1.7683934 6:-0.7541357 7:-0.74766277 8:0.59642352 9:0.7092231 10:0.013639951 11:0.83974374 12:0.73889653 13:-0.32834329 14:-0.03457096 15:-0.16659391 16:-1.2613357 17:-1.1314191 18:-1.1376819 19:-0.61439857 20:-0.46023484 21:-0.86645673 22:-0.31541784 23:0.19714067 24:-0.56798043 25:-0.21302827 26:-0.12669251 27:-1.1527021 28:-0.7631874 29:-0.96674213 30:-0.87424084 31:-0.26599269 32:-0.2038893 33:-0.96580197 34:-0.2038893 35:-0.26599269 36:-0.87424084 37:-0.96674213 38:-0.7631874 39:-1.1527021 40:-0.12669251 41:-0.21302827 42:-0.56798043 43:0.19714067 44:-0.31541784 45:-0.86645673 46:-0.46023484 47:-0.61439857 48:-1.1376819 49:-1.1314191 50:-1.2613357 51:-0.16659391 52:-0.03457096 53:-0.32834329 54:0.73889653 55:0.83974374 56:0.013639951 57:0.7092231 58:0.59642352 59:-0.74766277 60:-0.7541357 61:-1.7683934 62:-0.47981424 63:-0.94517869 64:0.50061019 
-0.28139443036195833 0 0 0 1:0.45249374 2:0.49853102 3:-1.1356134 4:-0.76179656 5:0.25324115 6:1.3907699 7:-0.0072515356 8:1.1597254 9:0.28018919 10:-0.71542559 11:-1.2789148 12:-1.1277136 13:-0.58869505 14:-0.016207655 15:-0.21621482 16:-0.47141441 17:-0.10080969 18:-0.4402942 19:-0.48243073 20:-0.6444343 21:-1.2077708 22:-0.93672532 23:-0.45272411 24:-0.74287552 25:-0.59089307 26:-0.5921484 27:-1.317476 28:-0.24990107 29:-0.017312683 30:-0.91597933 31:-0.27787181 32:-0.48926605 33:-0.88481065 34:-0.48926605 35:-0.27787181 36:-0.91597933 37:-0.017312683 38:-0.24990107 39:-1.317476 40:-0.5921484 41:-0.59089307 42:-0.74287552 43:-0.45272411 44:-0.93672532 45:-1.2077708 46:-0.6444343 47:-0.48243073 48:-0.4402942 49:-0.10080969 50:-0.47141441 51:-0.21621482 52:-0.016207655 53:-0.58869505 54:-1.1277136 55:-1.2789148 56:-0.71542559 57:0.28018919 58:1.1597254 59:-0.0072515356 60:1.3907699 61:0.25324115 62:-0.76179656 63:-1.1356134 64:0.49853102 
-1.3600184441168455 1.8116012330749944 1.4020616447216052 0 1:-1.3395481 2:0.62300078 3:0.42577505 4:0.5557684 5:0.39703845 6:1.6450218 7:0.27844001 8:0.95948162 9:-0.2519209 10:0.82800116 11:-1.383051 12:-0.62632771 13:-1.0200744 14:0.12346234 15:0.82209666 16:-0.27298168 17:-0.21312287 18:-0.087374087 19:-0.37689725 20:-0.47647224 21:-0.41396663 22:-0.83294483 23:-0.76581284 24:0.21510074 25:-0.59824893 26:-0.35130437 27:-0.2202596 28:-0.3967618 29:0.13922988 30:0.39246622 31:-0.33356543 32:-0.61446656 33:0.17246985 34:-0.61446656 35:-0.33356543 36:0.39246622 37:0.13922988 38:-0.3967618 39:-0.2202596 40:-0.35130437 41:-0.59824893 42:0.21510074 43:-0.76581284 44:-0.83294483 45:-0.41396663 46:-0.47647224 47:-0.37689725 48:-0.087374087 49:-0.21312287 50:-0.27298168 51:0.82209666 52:0.12346234 53:-1.0200744 54:-0.62632771 55:-1.383051 56:0.82800116 57:-0.2519209 58:0.95948162 59:0.27844001 60:1.6450218 61:0.39703845 62:0.5557684 63:0.42577505 64:0.62300078 
-0.17009186316769606 0.20846663004220381 0.49241886041751698 0.95300110443783137 1:1.9979723 2:-1.5341709 3:-1.5459408 4:-0.79948438 5:-0.34455646 6:0.064498118 7:-0.33508628 8:0.89696978 9:0.75028183 10:-0.57156586 11:-0.0081212357 12:-0.37452011 13:-0.90325326 14:-1.3694235 15:-1.241917 16:-0.4715633 17:-0.70460372 18:-0.73730806 19:-1.0924404 20:-1.2160053 21:-0.90601305 22:-0.68217172 23:-0.44337066 24:-0.50683987 25:-0.40981174 26:-0.45001917 27:-0.42786966 28:-0.95408803 29:-0.92291235 30:-0.78244647 31:-0.81124094 32:-0.88202207 33:-0.20172201 34:-0.88202207 35:-0.81124094 36:-0.78244647 37:-0.92291235 38:-0.95408803 39:-0.42786966 40:-0.45001917 41:-0.40981174 42:-0.50683987 43:-0.44337066 44:-0.68217172 45:-0.90601305 46:-1.2160053 47:-1.0924404 48:-0.73730806 49:-0.70460372 50:-0.4715633 51:-1.241917 52:-1.3694235 53:-0.90325326 54:-0.37452011 55:-0.0081212357 56:-0.57156586 57:0.75028183 58:0.89696978 59:-0.33508628 60:0.064498118 61:-0.34455646 62:-0.79948438 63:-1.5459408 64:-1.5341709 
-0.7399481051768092 0 0.25532573634696953 0 1:0.60418085 2:-0.44502299 3:-0.51948104 4:-0.68971184 5:2.1717273 6:1.3612582 7:-0.53810756 8:-1.1862587 9:-0.096830717 10:-0.21029002 11:0.59481064 12:-0.11918788 13:-1.147868 14:-0.56356395 15:-1.2680485 16:-0.67281481 17:-0.59339809 18:-0.38197709 19:-0.78166374 20:-0.25829065 21:-0.3574715 22:-0.39171652 23:-0.56655554 24:-0.6571091 25:-0.35955978 26:-0.3727702 27:-0.48719572 28:-0.9564303 29:-0.45245713 30:-1.0540093 31:0.014660859 32:-0.236188 33:-0.51846678 34:-0.236188 35:0.014660859 36:-1.0540093 37:-0.45245713 38:-0.9564303 39:-0.48719572 40:-0.3727702 41:-0.35955978 42:-0.6571091 43:-0.56655554 44:-0.39171652 45:-0.3574715 46:-0.25829065 47:-0.78166374 48:-0.38197709 49:-0.59339809 50:-0.67281481 51:-1.2680485 52:-0.56356395 53:-1.147868 54:-0.11918788 55:0.59481064 56:-0.21029002 57:-0.096830717 58:-1.1862587 59:-0.53810756 60:1.3612582 61:2.1717273 62:-0.68971184 63:-0.51948104 64:-0.44502299 
-0 -0.094871434618941541 0.49800328580635461 0.64361382790115507 1:-1.1268473 2:-0.027343219 3:0.85288816 4:1.7967918 5:-1.3726218 6:0.72160225 7:3.0101256 8:0.7694935 9:0.86937159 10:-0.2264215 11:0.68726092 12:0.94146511 13:1.6959843 14:-0.65998419 15:-0.26693451 16:2.0629612 17:-0.52718743 18:-1.0902934 19:0.29700161 20:-0.46402711 21:0.236954 22:0.78251283 23:-1.1817666 24:0.51379933 25:0.78496526 26:0.77224658 27:0.37981612 28:-1.0407655 29:-0.10261294 30:0.48613843 31:1.3207789 32:-0.0561228 33:0.43208163 34:-0.0561228 35:1.3207789 36:0.48613843 37:-0.10261294 38:-1.0407655 39:0.37981612 40:0.77224658 41:0.78496526 42:0.51379933 43:-1.1817666 44:0.78251283 45:0.236954 46:-0.46402711 47:0.29700161 48:-1.0902934 49:-0.52718743 50:2.0629612 51:-0.26693451 52:-0.65998419 53:1.6959843 54:0.94146511 55:0.68726092 56:-0.2264215 57:0.86937159 58:0.7694935 59:3.0101256 60:0.72160225 61:-1.3726218 62:1.7967918 63:0.85288816 64:-0.027343219 
-0 -0 0.18631569322468752 0 1:-0.62270422 2:-0.35508195 3:1.0559982 4:1.6724878 5:-0.5856757 6:1.2511986 7:0.78576982 8:0.70751089 9:0.65455555 10:0.25420958 11:-0.021528434 12:-0.35511441 13:0.91514094 14:-1.2977049 15:-0.56865957 16:-0.30830808 17:-0.58279943 18:0.38199996 19:-0.49147179 20:-0.76529241 21:0.71352602 22:-0.092942382 23:0.58175173 24:0.70499336 25:-0.78567998 26:-0.060906326 27:0.1334664 28:-0.080986162 29:-1.4122619 30:0.44687233 31:-0.75676925 32:-0.58749263 33:0.72308471 34:-0.58749263 35:-0.75676925 36:0.44687233 37:-1.4122619 38:-0.080986162 39:0.1334664 40:-0.060906326 41:-0.78567998 42:0.70499336 43:0.58175173 44:-0.092942382 45:0.71352602 46:-0.76529241 47:-0.49147179 48:0.38199996 49:-0.58279943 50:-0.30830808 51:-0.56865957 52:-1.2977049 53:0.91514094 54:-0.35511441 55:-0.021528434 56:0.25420958 57:0.65455555 58:0.70751089 59:0.78576982 60:1.2511986 61:-0.5856757 62:1.6724878 63:1.0559982 64:-0.35508195 
-0.25621235066274506 -1.856237015565785 0.65912993866023217 1.5001834546601447 1:0.82359312 2:-0.25933019 3:-0.080654731 4:0.30300636 5:-0.051464335 6:-0.6485892 7:-1.1215818 8:1.2936032 9:0.83967602 10:-0.18475485 11:0.16648132 12:0.22730366 13:-0.68258876 14:-0.78676517 15:-0.72869461 16:-0.48577039 17:0.16961676 18:0.052289394 19:0.0039467057 20:-1.407392 21:-0.65996461 22:-1.0910387 23:1.5673409 24:-0.38946083 25:0.36539758 26:1.2903969 27:-0.209278 28:0.53410889 29:-1.6221973 30:-1.1166194 31:-0.98678506 32:0.5629473 33:-0.61170089 34:0.5629473 35:-0.98678506 36:-1.1166194 37:-1.6221973 38:0.53410889 39:-0.209278 40:1.2903969 41:0.36539758 42:-0.38946083 43:1.5673409 44:-1.0910387 45:-0.65996461 46:-1.407392 47:0.0039467057 48:0.052289394 49:0.16961676 50:-0.48577039 51:-0.72869461 52:-0.78676517 53:-0.68258876 54:0.22730366 55:0.16648132 56:-0.18475485 57:0.83967602 58:1.2936032 59:-1.1215818 60:-0.6485892 61:-0.051464335 62:0.30300636 63:-0.080654731 64:-0.25933019 
-0 -0.014314485293881437 0.13161834037230438 0 1:-1.0988488 2:-2.180941 3:1.9749766 4:1.7034432 5:2.2430713 6:-0.33432303 7:3.1872099 8:-1.1271933 9:0.64028327 10:-0.47523072 11:0.099767082 12:-0.28407419 13:0.21616068 14:-0.55856104 15:0.63955789 16:0.38947529 17:-0.33805979 18:-0.68120618 19:-0.44099142 20:-0.67709533 21:0.062682488 22:-0.70557481 23:-0.55493388 24:0.44826991 25:-0.095555665 26:0.22935226 27:0.20813443 28:0.014993331 29:-0.78205293 30:0.023607387 31:-0.065059425 32:0.15764461 33:0.64680204 34:0.15764461 35:-0.065059425 36:0.023607387 37:-0.78205293 38:0.014993331 39:0.20813443 40:0.22935226 41:-0.095555665 42:0.44826991 43:-0.55493388 44:-0.70557481 45:0.062682488 46:-0.67709533 47:-0.44099142 48:-0.68120618 49:-0.33805979 50:0.38947529 51:0.63955789 52:-0.55856104 53:0.21616068 54:-0.28407419 55:0.099767082 56:-0.47523072 57:0.64028327 58:-1.1271933 59:3.1872099 60:-0.33432303 61:2.2430713 62:1.7034432 63:1.9749766 64:-2.180941 
-0.01342558215159954 -0.14628223963829448 0.12534002729864741 0.36224425239092589 1:-0.64988928 2:-0.81690902 3:1.4984563 4:1.733033 5:-1.0055362 6:0.342533 7:3.5528827 8:0.77824164 9:0.29998997 10:0.21351777 11:1.257379 12:1.1513645 13:0.71806165 14:0.70433579 15:0.018814717 16:2.1627261 17:0.010880639 18:0.23110857 19:1.5555549 20:1.4640819 21:1.9066615 22:2.0431178 23:1.9844855 24:1.2864054 25:3.7836485 26:-1.0539125 27:-0.11651168 28:3.0199056 29:0.61500607 30:0.12816886 31:0.64023285 32:1.412428 33:-0.073642999 34:1.412428 35:0.64023285 36:0.12816886 37:0.61500607 38:3.0199056 39:-0.11651168 40:-1.0539125 41:3.7836485 42:1.2864054 43:1.9844855 44:2.0431178 45:1.9066615 46:1.4640819 47:1.5555549 48:0.23110857 49:0.010880639 50:2.1627261 51:0.018814717 52:0.70433579 53:0.71806165 54:1.1513645 55:1.257379 56:0.21351777 57:0.29998997 58:0.77824164 59:3.5528827 60:0.342533 61:-1.0055362 62:1.733033 63:1.4984563 64:-0.81690902 
-0.24370221083348304 -0.14253007851853072 0.96510164781086838 0 1:-0.89689331 2:-0.62062898 3:1.4830173 4:1.4007559 5:0.46532984 6:0.96616204 7:-0.73041486 8:0.24053674 9:-0.42376701 10:1.4327223 11:-1.4747064 12:0.060888165 13:0.022834253 14:0.14978004 15:0.98074138 16:0.68137136 17:-0.66329695 18:-0.95084939 19:0.52443975 20:-0.74528854 21:0.92504649 22:-0.052411945 23:-0.32048613 24:0.170264 25:0.28801295 26:-1.0437029 27:1.2547654 28:-0.76271966 29:-0.32887422 30:-0.16540163 31:-0.019936806 32:-0.87196646 33:1.8202324 34:-0.87196646 35:-0.019936806 36:-0.16540163 37:-0.32887422 38:-0.76271966 39:1.2547654 40:-1.0437029 41:0.28801295 42:0.170264 43:-0.32048613 44:-0.052411945 45:0.92504649 46:-0.74528854 47:0.52443975 48:-0.95084939 49:-0.66329695 50:0.68137136 51:0.98074138 52:0.14978004 53:0.022834253 54:0.060888165 55:-1.4747064 56:1.4327223 57:-0.42376701 58:0.24053674 59:-0.73041486 60:0.96616204 61:0.46532984 62:1.4007559 63:1.4830173 64:-0.62062898 
-0.40264708405099636 -0.62620473288714695 0.71597406693872934 1.0064889661466658 1:0.47191659 2:-0.83861036 3:0.86155215 4:0.31842246 5:0.42559445 6:-0.73279561 7:-0.88353749 8:1.5250002 9:0.34794223 10:-0.081177377 11:-0.078616121 12:-0.35560343 13:-0.96952346 14:0.044456869 15:-0.8094461 16:-0.094362392 17:1.1390831 18:0.37238964 19:0.47029174 20:-0.0059174941 21:-0.0141655 22:-1.1374772 23:-0.094826425 24:0.1474523 25:0.67201703 26:0.51516681 27:0.79406676 28:0.093463102 29:-1.1658436 30:0.4212636 31:-0.91622537 32:0.55426149 33:0.079235909 34:0.55426149 35:-0.91622537 36:0.4212636 37:-1.1658436 38:0.093463102 39:0.79406676 40:0.51516681 41:0.67201703 42:0.1474523 43:-0.094826425 44:-1.1374772 45:-0.0141655 46:-0.0059174941 47:0.47029174 48:0.37238964 49:1.1390831 50:-0.094362392 51:-0.8094461 52:0.044456869 53:-0.96952346 54:-0.35560343 55:-0.078616121 56:-0.081177377 57:0.34794223 58:1.5250002 59:-0.88353749 60:-0.73279561 61:0.42559445 62:0.31842246 63:0.86155215 64:-0.83861036 
-0 -0.035774147335647447 0.21515475158112587 0.4214750331115435 1:-1.4697786 2:-2.1201425 3:2.0779002 4:1.9976344 5:1.9198161 6:-0.84194714 7:2.1231532 8:-0.91651101 9:0.53243148 10:-1.1274515 11:0.76084079 12:-0.070775871 13:1.3730666 14:0.33280934 15:1.7781144 16:1.0142098 17:0.16724416 18:-0.60200799 19:0.89029227 20:0.039248052 21:1.5621065 22:2.3771711 23:-0.83849303 24:-0.96950923 25:-0.25331319 26:-0.7187885 27:0.71734455 28:0.90289095 29:1.7054061 30:0.69991375 31:0.80249575 32:-0.92261022 33:-0.18288686 34:-0.92261022 35:0.80249575 36:0.69991375 37:1.7054061 38:0.90289095 39:0.71734455 40:-0.7187885 41:-0.25331319 42:-0.96950923 43:-0.83849303 44:2.3771711 45:1.5621065 46:0.039248052 47:0.89029227 48:-0.60200799 49:0.16724416 50:1.0142098 51:1.7781144 52:0.33280934 53:1.3730666 54:-0.070775871 55:0.76084079 56:-1.1274515 57:0.53243148 58:-0.91651101 59:2.1231532 60:-0.84194714 61:1.9198161 62:1.9976344 63:2.0779002 64:-2.1201425 
-0 -0 0 0.036832212958009342 1:-0.25462179 2:-0.8999625 3:0.53756399 4:2.1593343 5:-0.15177679 6:1.8346848 7:1.167882 8:0.68188757 9:0.39419086 10:0.99661534 11:-0.50395007 12:-1.0833725 13:1.7485508 14:-0.55595178 15:0.43992953 16:-0.28024333 17:0.0056203908 18:0.321523 19:1.0595942 20:-1.2331076 21:-0.018238646 22:0.34132386 23:-0.23833862 24:-0.022034038 25:-0.53692563 26:-0.73329258 27:0.82483391 28:0.43401166 29:-0.79434541 30:0.78898649 31:-0.99028712 32:-0.30139637 33:0.23180058 34:-0.30139637 35:-0.99028712 36:0.78898649 37:-0.79434541 38:0.43401166 39:0.82483391 40:-0.73329258 41:-0.53692563 42:-0.022034038 43:-0.23833862 44:0.34132386 45:-0.018238646 46:-1.2331076 47:1.0595942 48:0.321523 49:0.0056203908 50:-0.28024333 51:0.43992953 52:-0.55595178 53:1.7485508 54:-1.0833725 55:-0.50395007 56:0.99661534 57:0.39419086 58:0.68188757 59:1.167882 60:1.8346848 61:-0.15177679 62:2.1593343 63:0.53756399 64:-0.8999625 
-0.48779014530660675 -1.1870537502311633 0.33308292079496526 1.6742982104310529 1:1.1975734 2:-1.6438388 3:0.15485072 4:-0.52778657 5:1.4901853 6:0.32786506 7:-0.35816807 8:0.91212272 9:-0.0057595861 10:-1.3061432 11:0.042188539 12:0.10732335 13:0.030511897 14:1.4658756 15:0.77896906 16:-0.55333384 17:-0.86904143 18:-0.74153399 19:-0.081012163 20:0.016836427 21:0.74797551 22:-0.14457352 23:-0.80050096 24:-0.50767707 25:-1.1616058 26:-0.41234801 27:-0.10649415 28:-0.32046713 29:-0.46537239 30:-0.49249055 31:-0.38110141 32:-0.52798533 33:0.030892322 34:-0.52798533 35:-0.38110141 36:-0.49249055 37:-0.46537239 38:-0.32046713 39:-0.10649415 40:-0.41234801 41:-1.1616058 42:-0.50767707 43:-0.80050096 44:-0.14457352 45:0.74797551 46:0.016836427 47:-0.081012163 48:-0.74153399 49:-0.86904143 50:-0.55333384 51:0.77896906 52:1.4658756 53:0.030511897 54:0.10732335 55:0.042188539 56:-1.3061432 57:-0.0057595861 58:0.91212272 59:-0.35816807 60:0.32786506 61:1.4901853 62:-0.52778657 63:0.15485072 64:-1.6438388 
-0.093106901432226399 -0.39197665199205228 0.61716563918980349 0.7546059428829186 1:-1.0264797 2:0.0052976951 3:0.94714432 4:1.1600555 5:-1.0693093 6:0.084343761 7:1.7399552 8:0.95590841 9:-0.019668608 10:-0.48006194 11:1.3202111 12:0.61122488 13:0.41426587 14:0.30242749 15:-0.040351625 16:0.63830421 17:-0.32116603 18:-0.69067818 19:-0.0091518134 20:1.1627057 21:1.6133704 22:1.6699729 23:1.2692977 24:3.0633329 25:3.614991 26:-1.3409171 27:1.2636325 28:2.6285312 29:2.4616928 30:1.8581768 31:1.0470802 32:2.7556531 33:2.592788 34:2.7556531 35:1.0470802 36:1.8581768 37:2.4616928 38:2.6285312 39:1.2636325 40:-1.3409171 41:3.614991 42:3.0633329 43:1.2692977 44:1.6699729 45:1.6133704 46:1.1627057 47:-0.0091518134 48:-0.69067818 49:-0.32116603 50:0.63830421 51:-0.040351625 52:0.30242749 53:0.41426587 54:0.61122488 55:1.3202111 56:-0.48006194 57:-0.019668608 58:0.95590841 59:1.7399552 60:0.084343761 61:-1.0693093 62:1.1600555 63:0.94714432 64:0.0052976951 
-0.028010090012094521 -0.1254947886974212 0.17167765516236069 0.33398380507862474 1:-0.93197619 2:-1.0396748 3:1.2017162 4:1.870343 5:0.5318703 6:0.034136971 7:2.1338469 8:0.80346636 9:0.57455965 10:-0.95832977 11:-0.31099389 12:-0.50669967 13:0.38862404 14:-0.89019464 15:0.5349065 16:-0.94598651 17:0.94142087 18:1.6220328 19:1.2332821 20:1.7352609 21:0.41229912 22:3.261211 23:-0.31729479 24:-0.58333893 25:1.8944154 26:0.12028156 27:0.29887933 28:2.5694415 29:-0.18274358 30:0.083878624 31:3.9543726 32:0.94549701 33:0.61760729 34:0.94549701 35:3.9543726 36:0.083878624 37:-0.18274358 38:2.5694415 39:0.29887933 40:0.12028156 41:1.8944154 42:-0.58333893 43:-0.31729479 44:3.261211 45:0.41229912 46:1.7352609 47:1.2332821 48:1.6220328 49:0.94142087 50:-0.94598651 51:0.5349065 52:-0.89019464 53:0.38862404 54:-0.50669967 55:-0.31099389 56:-0.95832977 57:0.57455965 58:0.80346636 59:2.1338469 60:0.034136971 61:0.5318703 62:1.870343 63:1.2017162 64:-1.0396748 
-0 -0.70329999104107666 0.50625680685102703 0.74521106073241383 1:-0.93384056 2:-0.0035957268 3:0.89214441 4:1.0902781 5:0.40381976 6:0.42239316 7:0.87857927 8:0.78074774 9:0.47489342 10:0.40372957 11:-0.48111602 12:-1.3662397 13:1.122542 14:0.50692091 15:1.3747546 16:0.49393663 17:1.6586238 18:1.521467 19:2.5496765 20:0.092028699 21:-0.37498755 22:1.6411978 23:1.5161855 24:1.2681561 25:2.6063338 26:1.4528197 27:-0.55703939 28:2.8437179 29:-0.77929662 30:1.7447352 31:0.08586218 32:1.6265886 33:-0.46258895 34:1.6265886 35:0.08586218 36:1.7447352 37:-0.77929662 38:2.8437179 39:-0.55703939 40:1.4528197 41:2.6063338 42:1.2681561 43:1.5161855 44:1.6411978 45:-0.37498755 46:0.092028699 47:2.5496765 48:1.521467 49:1.6586238 50:0.49393663 51:1.3747546 52:0.50692091 53:1.122542 54:-1.3662397 55:-0.48111602 56:0.40372957 57:0.47489342 58:0.78074774 59:0.87857927 60:0.42239316 61:0.40381976 62:1.0902781 63:0.89214441 64:-0.0035957268 
-0.24425188426805483 -0.70155843623894532 1.1590267232125595 1.0408517656611789 1:1.1001887 2:-2.0961584 3:1.0141641 4:-0.42101882 5:1.2961294 6:-0.60793151 7:-0.62921733 8:0.013491062 9:-0.36608763 10:-0.87552785 11:0.15547228 12:-0.93393626 13:0.0029625548 14:1.4659158 15:0.83620534 16:-0.48705104 17:-0.16587119 18:-0.22410184 19:0.12035197 20:1.5613401 21:1.2613956 22:-0.29509269 23:0.55162459 24:2.1069745 25:-0.40983843 26:1.001867 27:0.76684485 28:-0.96197467 29:0.44631679 30:2.9428432 31:0.39225341 32:0.36147069 33:0.20574562 34:0.36147069 35:0.39225341 36:2.9428432 37:0.44631679 38:-0.96197467 39:0.76684485 40:1.001867 41:-0.40983843 42:2.1069745 43:0.55162459 44:-0.29509269 45:1.2613956 46:1.5613401 47:0.12035197 48:-0.22410184 49:-0.16587119 50:-0.48705104 51:0.83620534 52:1.4659158 53:0.0029625548 54:-0.93393626 55:0.15547228 56:-0.87552785 57:-0.36608763 58:0.013491062 59:-0.62921733 60:-0.60793151 61:1.2961294 62:-0.42101882 63:1.0141641 64:-2.0961584 
-0.081004453492522235 -0.43203712227259605 0.57982171324123921 0.92565589894774669 1:-1.8532839 2:-1.2971335 3:0.89381764 4:2.3336698 5:1.8547026 6:0.65613684 7:-1.40223 8:0.26792133 9:-0.95419667 10:1.3262574 11:0.082754992 12:1.3655781 13:-0.59993288 14:1.2786539 15:0.69874306 16:1.590633 17:-0.78507512 18:1.3412292 19:1.0751573 20:1.3877853 21:1.4018611 22:3.3265671 23:0.94458957 24:0.38180622 25:1.0649974 26:-0.70189713 27:-0.49279424 28:2.9593718 29:1.9088357 30:1.9698983 31:0.5209748 32:0.38296669 33:-0.95136151 34:0.38296669 35:0.5209748 36:1.9698983 37:1.9088357 38:2.9593718 39:-0.49279424 40:-0.70189713 41:1.0649974 42:0.38180622 43:0.94458957 44:3.3265671 45:1.4018611 46:1.3877853 47:1.0751573 48:1.3412292 49:-0.78507512 50:1.590633 51:0.69874306 52:1.2786539 53:-0.59993288 54:1.3655781 55:0.082754992 56:1.3262574 57:-0.95419667 58:0.26792133 59:-1.40223 60:0.65613684 61:1.8547026 62:2.3336698 63:0.89381764 64:-1.2971335 
-0 -0.3953628969693348 0 0 1:-1.0887137 2:-0.85116929 3:1.4339135 4:2.3837603 5:-0.33888653 6:1.9007873 7:0.20569443 8:0.73069974 9:0.22194971 10:1.1661587 11:-0.78978785 12:-1.5014811 13:0.29538096 14:-0.60166972 15:0.49555221 16:-0.7762732 17:-0.54206993 18:0.80424292 19:-0.04434742 20:-1.0163728 21:-0.086063939 22:-0.40050017 23:-0.23759395 24:0.16997518 25:-0.34346671 26:-0.26172215 27:0.15331907 28:0.35864067 29:-0.22954851 30:0.47797952 31:-0.82934244 32:-0.5005654 33:0.99744994 34:-0.5005654 35:-0.82934244 36:0.47797952 37:-0.22954851 38:0.35864067 39:0.15331907 40:-0.26172215 41:-0.34346671 42:0.16997518 43:-0.23759395 44:-0.40050017 45:-0.086063939 46:-1.0163728 47:-0.04434742 48:0.80424292 49:-0.54206993 50:-0.7762732 51:0.49555221 52:-0.60166972 53:0.29538096 54:-1.5014811 55:-0.78978785 56:1.1661587 57:0.22194971 58:0.73069974 59:0.20569443 60:1.9007873 61:-0.33888653 62:2.3837603 63:1.4339135 64:-0.85116929 
-0 -0 0 0.24436099075212012 1:-0.79503414 2:-1.0666383 3:1.106414 4:2.0912612 5:-0.36216951 6:1.9782413 7:0.22473168 8:0.7643489 9:0.88330887 10:1.3025164 11:-0.40631886 12:-1.2320955 13:1.3442192 14:-0.78437388 15:0.072934452 16:-0.6124244 17:-0.46305692 18:0.74804245 19:0.57803782 20:-1.0790061 21:0.46408729 22:-0.30163684 23:-0.11406248 24:-0.18344858 25:0.0070916736 26:0.025260192 27:-0.033552326 28:0.50552872 29:-0.24086499 30:0.7474197 31:-0.97465934 32:-0.60546215 33:0.33382418 34:-0.60546215 35:-0.97465934 36:0.7474197 37:-0.24086499 38:0.50552872 39:-0.033552326 40:0.025260192 41:0.0070916736 42:-0.18344858 43:-0.11406248 44:-0.30163684 45:0.46408729 46:-1.0790061 47:0.57803782 48:0.74804245 49:-0.46305692 50:-0.6124244 51:0.072934452 52:-0.78437388 53:1.3442192 54:-1.2320955 55:-0.40631886 56:1.3025164 57:0.88330887 58:0.7643489 59:0.22473168 60:1.9782413 61:-0.36216951 62:2.0912612 63:1.106414 64:-1.0666383 
-0 -0.19288459296330446 0.37863137404052621 0.47098537140876817 1:-0.30170405 2:-0.81693098 3:1.5969784 4:2.1482795 5:-0.18517574 6:1.5966353 7:1.8185504 8:1.2737866 9:-0.2116469 10:1.7793708 11:-0.71094675 12:-0.97068989 13:1.7266472 14:0.60687032 15:1.0896599 16:1.0251981 17:-0.2472394 18:0.26014581 19:2.6324343 20:0.063176102 21:-0.35599343 22:0.98948769 23:0.1511135 24:0.56087323 25:2.3778555 26:1.179186 27:0.44475193 28:-0.011000798 29:2.0827296 30:0.76248482 31:2.6931253 32:1.0111316 33:0.053807904 34:1.0111316 35:2.6931253 36:0.76248482 37:2.0827296 38:-0.011000798 39:0.44475193 40:1.179186 41:2.3778555 42:0.56087323 43:0.1511135 44:0.98948769 45:-0.35599343 46:0.063176102 47:2.6324343 48:0.26014581 49:-0.2472394 50:1.0251981 51:1.0896599 52:0.60687032 53:1.7266472 54:-0.97068989 55:-0.71094675 56:1.7793708 57:-0.2116469 58:1.2737866 59:1.8185504 60:1.5966353 61:-0.18517574 62:2.1482795 63:1.5969784 64:-0.81693098 
-0.025054020283876721 -0.2389742895469123 0.4002853195448044 0.54655874834356022 1:0.2257937 2:0.02078445 3:0.13156717 4:0.93246509 5:-1.8694 6:-0.059834975 7:2.4655136 8:-0.71214379 9:0.18192574 10:0.93277474 11:0.56971475 12:0.57796678 13:-0.85389269 14:1.485147 15:0.95905518 16:-0.27098447 17:1.2289032 18:1.2620055 19:1.2038571 20:0.60695747 21:1.2676168 22:2.4374341 23:-0.96798097 24:0.56704621 25:2.4653354 26:-0.68553565 27:-1.0593477 28:1.3525595 29:0.65444375 30:0.05688248 31:0.56180807 32:0.57006709 33:0.83295616 34:0.57006709 35:0.56180807 36:0.05688248 37:0.65444375 38:1.3525595 39:-1.0593477 40:-0.68553565 41:2.4653354 42:0.56704621 43:-0.96798097 44:2.4374341 45:1.2676168 46:0.60695747 47:1.2038571 48:1.2620055 49:1.2289032 50:-0.27098447 51:0.95905518 52:1.485147 53:-0.85389269 54:0.57796678 55:0.56971475 56:0.93277474 57:0.18192574 58:-0.71214379 59:2.4655136 60:-0.059834975 61:-1.8694 62:0.93246509 63:0.13156717 64:0.02078445 
-0.11170645752511937 -0.47962329681971205 0.51579192207644442 0.82281262822552881 1:-0.45620449 2:-1.8172251 3:1.101182 4:2.2707656 5:0.42433971 6:0.53723182 7:3.4181601 8:0.76189958 9:0.53071288 10:-0.6480317 11:-0.44325659 12:-1.1372979 13:0.062082485 14:-0.81118888 15:1.3285046 16:-0.49879605 17:0.30104237 18:1.7692399 19:0.53307469 20:-0.359543 21:-0.44610503 22:3.0717416 23:-0.037408884 24:1.2714655 25:2.4607006 26:1.0684347 27:1.1136866 28:2.7248142 29:0.35582282 30:-0.37901651 31:5.1091772 32:3.3238412 33:1.2749547 34:3.3238412 35:5.1091772 36:-0.37901651 37:0.35582282 38:2.7248142 39:1.1136866 40:1.0684347 41:2.4607006 42:1.2714655 43:-0.037408884 44:3.0717416 45:-0.44610503 46:-0.359543 47:0.53307469 48:1.7692399 49:0.30104237 50:-0.49879605 51:1.3285046 52:-0.81118888 53:0.062082485 54:-1.1372979 55:-0.44325659 56:-0.6480317 57:0.53071288 58:0.76189958 59:3.4181601 60:0.53723182 61:0.42433971 62:2.2707656 63:1.101182 64:-1.8172251 
-0.10500763248066115 -0.15907328582730831 0.41489871260879346 0.27149211030123738 1:0.05068427 2:-1.0091915 3:1.7457322 4:1.3012902 5:0.28633522 6:0.65547147 7:0.9668723 8:0.046161281 9:-0.36794228 10:-0.73362725 11:-1.4380724 12:-0.38570185 13:0.12223539 14:0.19139479 15:1.8720856 16:-0.97331156 17:0.1016303 18:0.090923227 19:0.70392304 20:-0.87370208 21:1.5342153 22:-0.016554411 23:1.6052774 24:2.8359882 25:1.7412411 26:0.5846028 27:-1.0405894 28:1.7401913 29:0.61925559 30:1.6712876 31:1.046338 32:2.426887 33:0.53661631 34:2.426887 35:1.046338 36:1.6712876 37:0.61925559 38:1.7401913 39:-1.0405894 40:0.5846028 41:1.7412411 42:2.8359882 43:1.6052774 44:-0.016554411 45:1.5342153 46:-0.87370208 47:0.70392304 48:0.090923227 49:0.1016303 50:-0.97331156 51:1.8720856 52:0.19139479 53:0.12223539 54:-0.38570185 55:-1.4380724 56:-0.73362725 57:-0.36794228 58:0.046161281 59:0.9668723 60:0.65547147 61:0.28633522 62:1.3012902 63:1.7457322 64:-1.0091915 
-0.14940133812215736 -0.65414314700369147 0.73787613230338989 1.1686659022575758 1:-1.3669365 2:-1.5550152 3:1.8383487 4:2.7367281 5:0.27037719 6:-0.28245399 7:3.5524665 8:0.89966218 9:-0.81795488 10:-0.74949871 11:-0.76985883 12:-0.85458481 13:1.7213381 14:0.91134054 15:0.0011571196 16:-0.51913092 17:1.3265448 18:0.25855861 19:1.5477346 20:0.25183467 21:-0.4917812 22:1.4090826 23:4.4432786 24:1.4753755 25:2.2686743 26:2.7346543 27:0.77394582 28:4.0792147 29:3.9282109 30:0.53164277 31:2.47317 32:5.2400527 33:1.9291623 34:5.2400527 35:2.47317 36:0.53164277 37:3.9282109 38:4.0792147 39:0.77394582 40:2.7346543 41:2.2686743 42:1.4753755 43:4.4432786 44:1.4090826 45:-0.4917812 46:0.25183467 47:1.5477346 48:0.25855861 49:1.3265448 50:-0.51913092 51:0.0011571196 52:0.91134054 53:1.7213381 54:-0.85458481 55:-0.76985883 56:-0.74949871 57:-0.81795488 58:0.89966218 59:3.5524665 60:-0.28245399 61:0.27037719 62:2.7367281 63:1.8383487 64:-1.5550152 
-0.060003074525416075 -0.34647644959198876 0.60288158729970398 0.84608635674075039 1:-1.0087518 2:-1.7746118 3:1.9926213 4:2.6290393 5:1.1902258 6:-0.4482904 7:-0.06798558 8:-0.48272482 9:-0.29353221 10:1.9578637 11:-0.042543161 12:-0.27562585 13:0.14048293 14:0.93149876 15:1.0618146 16:0.88457188 17:-0.29719834 18:-0.46773196 19:0.61539064 20:1.8179838 21:2.69871 22:1.0505628 23:0.46066261 24:0.57806076 25:1.8792766 26:1.3959381 27:2.6570348 28:0.91267097 29:2.5482196 30:0.74908727 31:3.293119 32:0.3724018 33:0.094303812 34:0.3724018 35:3.293119 36:0.74908727 37:2.5482196 38:0.91267097 39:2.6570348 40:1.3959381 41:1.8792766 42:0.57806076 43:0.46066261 44:1.0505628 45:2.69871 46:1.8179838 47:0.61539064 48:-0.46773196 49:-0.29719834 50:0.88457188 51:1.0618146 52:0.93149876 53:0.14048293 54:-0.27562585 55:-0.042543161 56:1.9578637 57:-0.29353221 58:-0.48272482 59:-0.06798558 60:-0.4482904 61:1.1902258 62:2.6290393 63:1.9926213 64:-1.7746118 
-1.0833210684706134 -2.8039540329117445 1.6274462208458638 1.4358849520760542 1:-0.68788721 2:0.98040605 3:0.0017740926 4:0.68651881 5:-2.127043 6:-1.6107158 7:0.60301018 8:-0.157114 9:0.41050094 10:-1.1655682 11:0.63518267 12:1.2565424 13:0.32596641 14:0.62151393 15:0.61124607 16:0.55413078 17:-0.10821159 18:-0.46777674 19:-0.14485579 20:-0.0002352316 21:-0.70136637 22:0.032339263 23:0.62561316 24:-0.51077497 25:0.49647562 26:-0.099173222 27:-1.0654272 28:-0.19643637 29:0.039240901 30:-1.0510332 31:-0.2845696 32:0.32995946 33:-0.63524469 34:0.32995946 35:-0.2845696 36:-1.0510332 37:0.039240901 38:-0.19643637 39:-1.0654272 40:-0.099173222 41:0.49647562 42:-0.51077497 43:0.62561316 44:0.032339263 45:-0.70136637 46:-0.0002352316 47:-0.14485579 48:-0.46777674 49:-0.10821159 50:0.55413078 51:0.61124607 52:0.62151393 53:0.32596641 54:1.2565424 55:0.63518267 56:-1.1655682 57:0.41050094 58:-0.157114 59:0.60301018 60:-1.6107158 61:-2.127043 62:0.68651881 63:0.0017740926 64:0.98040605 
-0 -0.22024992969788035 0.56493890897990162 0.53696468363099625 1:-1.2644334 2:-0.35677974 3:1.3840971 4:1.7369296 5:1.179294 6:0.72396633 7:-0.45076878 8:1.4040361 9:-0.30960525 10:1.9049678 11:-1.0453471 12:-0.59418954 13:-0.075305948 14:0.60836879 15:1.221826 16:1.5020029 17:-0.47390293 18:-0.66645543 19:0.24061329 20:1.4829029 21:0.0082192364 22:0.93629489 23:-0.023750638 24:-1.0715615 25:-0.42848717 26:2.2789324 27:0.65749323 28:1.9393866 29:-0.706738 30:-0.73073394 31:0.19932614 32:1.8315824 33:0.83295616 34:1.8315824 35:0.19932614 36:-0.73073394 37:-0.706738 38:1.9393866 39:0.65749323 40:2.2789324 41:-0.42848717 42:-1.0715615 43:-0.023750638 44:0.93629489 45:0.0082192364 46:1.4829029 47:0.24061329 48:-0.66645543 49:-0.47390293 50:1.5020029 51:1.221826 52:0.60836879 53:-0.075305948 54:-0.59418954 55:-1.0453471 56:1.9049678 57:-0.30960525 58:1.4040361 59:-0.45076878 60:0.72396633 61:1.179294 62:1.7369296 63:1.3840971 64:-0.35677974 
-0.42855956732082462 -1.0667442615971703 1.0542690598113955 0.56791561341633201 1:-2.0240207 2:0.444605 3:0.37973813 4:1.2136978 5:0.08794318 6:0.40976282 7:0.22605511 8:0.78705293 9:0.90710934 10:0.30417725 11:-0.25731122 12:0.1290088 13:0.30207786 14:-1.4509392 15:0.11060386 16:0.17575849 17:-0.37014201 18:0.99976107 19:-0.49869126 20:-0.39470984 21:1.2924585 22:0.88554576 23:0.25538679 24:0.3319688 25:0.16340284 26:0.51018199 27:0.070577139 28:-0.71838922 29:-0.84889479 30:-0.59097168 31:0.0092288091 32:-0.50370751 33:-0.69488946 34:-0.50370751 35:0.0092288091 36:-0.59097168 37:-0.84889479 38:-0.71838922 39:0.070577139 40:0.51018199 41:0.16340284 42:0.3319688 43:0.25538679 44:0.88554576 45:1.2924585 46:-0.39470984 47:-0.49869126 48:0.99976107 49:-0.37014201 50:0.17575849 51:0.11060386 52:-1.4509392 53:0.30207786 54:0.1290088 55:-0.25731122 56:0.30417725 57:0.90710934 58:0.78705293 59:0.22605511 60:0.40976282 61:0.08794318 62:1.2136978 63:0.37973813 64:0.444605 
-0 -0 0.038807534384226627 0 1:-0.58511299 2:-0.61454483 3:1.5252422 4:1.6552772 5:0.5414149 6:-0.050926105 7:0.35487032 8:1.2785925 9:-0.15174643 10:0.53334578 11:-0.78295656 12:-1.0817663 13:0.28596802 14:0.25514983 15:-0.0052550142 16:-0.01600754 17:0.10229135 18:0.50368534 19:1.4837813 20:-0.28995992 21:-0.56567838 22:-0.2605292 23:-0.064609985 24:-0.58267641 25:0.015394448 26:-0.5909709 27:-0.89291643 28:-0.16404692 29:0.1972975 30:-0.94841975 31:0.30653384 32:-0.24210519 33:-0.9862065 34:-0.24210519 35:0.30653384 36:-0.94841975 37:0.1972975 38:-0.16404692 39:-0.89291643 40:-0.5909709 41:0.015394448 42:-0.58267641 43:-0.064609985 44:-0.2605292 45:-0.56567838 46:-0.28995992 47:1.4837813 48:0.50368534 49:0.10229135 50:-0.01600754 51:-0.0052550142 52:0.25514983 53:0.28596802 54:-1.0817663 55:-0.78295656 56:0.53334578 57:-0.15174643 58:1.2785925 59:0.35487032 60:-0.050926105 61:0.5414149 62:1.6552772 63:1.5252422 64:-0.61454483 
-0.056462486515745293 -0.076132961631775534 0.56464563029231907 0.19978627159386117 1:-0.86719991 2:-1.5482111 3:1.6173501 4:1.8642553 5:2.2477312 6:0.081503011 7:1.6188721 8:-1.8608715 9:-0.18322103 10:-0.27897512 11:0.5085116 12:0.39960301 13:1.7503844 14:-0.13914227 15:-0.052120452 16:0.11889279 17:-0.89012679 18:-0.66091136 19:0.72668446 20:0.8906957 21:-0.26122003 22:1.5166613 23:0.1908928 24:-0.34732304 25:-0.61024109 26:0.15491075 27:-0.028273912 28:1.5857889 29:1.9832639 30:-0.34198917 31:1.3811585 32:-0.3774936 33:-0.12230047 34:-0.3774936 35:1.3811585 36:-0.34198917 37:1.9832639 38:1.5857889 39:-0.028273912 40:0.15491075 41:-0.61024109 42:-0.34732304 43:0.1908928 44:1.5166613 45:-0.26122003 46:0.8906957 47:0.72668446 48:-0.66091136 49:-0.89012679 50:0.11889279 51:-0.052120452 52:-0.13914227 53:1.7503844 54:0.39960301 55:0.5085116 56:-0.27897512 57:-0.18322103 58:-1.8608715 59:1.6188721 60:0.081503011 61:2.2477312 62:1.8642553 63:1.6173501 64:-1.5482111 
-0.29970980436572053 -0.8660762600220564 0.91718968671459533 0.62847039981305786 1:-1.7424083 2:0.78792889 3:0.87446624 4:0.90727687 5:-1.9036764 6:-0.12080808 7:2.1782145 8:-0.51855792 9:-0.47410221 10:0.52761541 11:0.74771614 12:0.18989188 13:-1.335407 14:1.5097496 15:0.9215385 16:0.069885441 17:1.2264567 18:0.7617753 19:1.144352 20:0.76240591 21:-0.074203227 22:1.5711253 23:-0.091058138 24:-0.47337767 25:0.66315351 26:-0.73912913 27:0.1615961 28:-0.64593685 29:-0.69937994 30:0.0019790174 31:-1.2333739 32:-0.61977769 33:-0.41487341 34:-0.61977769 35:-1.2333739 36:0.0019790174 37:-0.69937994 38:-0.64593685 39:0.1615961 40:-0.73912913 41:0.66315351 42:-0.47337767 43:-0.091058138 44:1.5711253 45:-0.074203227 46:0.76240591 47:1.144352 48:0.7617753 49:1.2264567 50:0.069885441 51:0.9215385 52:1.5097496 53:-1.335407 54:0.18989188 55:0.74771614 56:0.52761541 57:-0.47410221 58:-0.51855792 59:2.1782145 60:-0.12080808 61:-1.9036764 62:0.90727687 63:0.87446624 64:0.78792889 
-0 -0.22405870117741358 0.12510995260803309 0 1:-1.594111 2:-0.023609517 3:1.2893633 4:1.5669484 5:0.021822437 6:0.75689397 7:0.015825378 8:1.1573174 9:0.071230736 10:0.59658347 11:-0.30240602 12:-1.4317247 13:0.47709374 14:-0.19977271 15:0.13599309 16:-0.41362928 17:0.82284961 18:0.81425761 19:1.4475205 20:-0.68737274 21:-0.4331611 22:0.70221719 23:0.40114306 24:0.14950798 25:-0.073387435 26:-0.30481542 27:0.36615347 28:0.85772136 29:-0.045543683 30:-0.75209254 31:-1.1067452 32:1.0646684 33:0.67034566 34:1.0646684 35:-1.1067452 36:-0.75209254 37:-0.045543683 38:0.85772136 39:0.36615347 40:-0.30481542 41:-0.073387435 42:0.14950798 43:0.40114306 44:0.70221719 45:-0.4331611 46:-0.68737274 47:1.4475205 48:0.81425761 49:0.82284961 50:-0.41362928 51:0.13599309 52:-0.19977271 53:0.47709374 54:-1.4317247 55:-0.30240602 56:0.59658347 57:0.071230736 58:1.1573174 59:0.015825378 60:0.75689397 61:0.021822437 62:1.5669484 63:1.2893633 64:-0.023609517 
-0.012934307450347755 -0.15302267073902998 0.41474894339668644 0.41673002930490777 1:-1.209826 2:0.74647199 3:0.80625793 4:0.54460588 5:-0.99543431 6:0.47644116 7:1.1185177 8:0.59001433 9:0.56976424 10:-0.84868402 11:1.0506325 12:0.47342222 13:0.45250786 14:0.27494196 15:-1.1082759 16:0.9934369 17:-0.12573121 18:-0.18878084 19:0.31500232 20:1.5973908 21:0.99001129 22:1.4617098 23:1.7636464 24:0.90208585 25:3.1790184 26:-1.824778 27:0.13020503 28:2.4050547 29:1.4661175 30:0.14304368 31:0.75403228 32:1.612258 33:-0.60259716 34:1.612258 35:0.75403228 36:0.14304368 37:1.4661175 38:2.4050547 39:0.13020503 40:-1.824778 41:3.1790184 42:0.90208585 43:1.7636464 44:1.4617098 45:0.99001129 46:1.5973908 47:0.31500232 48:-0.18878084 49:-0.12573121 50:0.9934369 51:-1.1082759 52:0.27494196 53:0.45250786 54:0.47342222 55:1.0506325 56:-0.84868402 57:0.56976424 58:0.59001433 59:1.1185177 60:0.47644116 61:-0.99543431 62:0.54460588 63:0.80625793 64:0.74647199 
-0.55392535111039232 -0 0 0 1:-0.20330254 2:-0.66339137 3:1.2965864 4:1.0970912 5:0.3038705 6:-0.51357556 7:-0.12903781 8:1.19289 9:0.25953602 10:0.05658241 11:-0.45290942 12:-0.29573141 13:0.018749455 14:-0.2276642 15:-0.76541036 16:-0.90008165 17:0.49567622 18:0.25781796 19:0.44231379 20:-0.83548011 21:-0.31319674 22:-0.47303737 23:0.21968742 24:-0.86735155 25:-0.23805964 26:0.34280941 27:-0.35415645 28:0.14628596 29:-0.82375188 30:-0.47605737 31:-0.5965717 32:0.45031312 33:-0.15871519 34:0.45031312 35:-0.5965717 36:-0.47605737 37:-0.82375188 38:0.14628596 39:-0.35415645 40:0.34280941 41:-0.23805964 42:-0.86735155 43:0.21968742 44:-0.47303737 45:-0.31319674 46:-0.83548011 47:0.44231379 48:0.25781796 49:0.49567622 50:-0.90008165 51:-0.76541036 52:-0.2276642 53:0.018749455 54:-0.29573141 55:-0.45290942 56:0.05658241 57:0.25953602 58:1.19289 59:-0.12903781 60:-0.51357556 61:0.3038705 62:1.0970912 63:1.2965864 64:-0.66339137 
-0 -0.19179458299432983 0.42695245986625557 0.28684495802191134 1:-1.0892561 2:-1.4760208 3:1.0768088 4:1.5569994 5:2.0069442 6:1.1799149 7:1.1905785 8:-1.2486753 9:-0.75606505 10:0.062666648 11:0.31616999 12:1.4569034 13:1.4709176 14:-0.65773731 15:-0.35954983 16:-0.28444189 17:0.11355905 18:-0.032442761 19:1.3783833 20:-0.78104815 21:0.10073104 22:-1.0442164 23:0.41871445 24:-0.77472433 25:0.28132723 26:-0.18574601 27:0.32227658 28:0.19668821 29:-0.24500664 30:0.26750997 31:-0.81006918 32:0.68760376 33:-0.60856158 34:0.68760376 35:-0.81006918 36:0.26750997 37:-0.24500664 38:0.19668821 39:0.32227658 40:-0.18574601 41:0.28132723 42:-0.77472433 43:0.41871445 44:-1.0442164 45:0.10073104 46:-0.78104815 47:1.3783833 48:-0.032442761 49:0.11355905 50:-0.28444189 51:-0.35954983 52:-0.65773731 53:1.4709176 54:1.4569034 55:0.31616999 56:0.062666648 57:-0.75606505 58:-1.2486753 59:1.1905785 60:1.1799149 61:2.0069442 62:1.5569994 63:1.0768088 64:-1.4760208 
-0 -0.16868427264906907 0 0.03856008839071854 1:-1.0991878 2:-0.42968153 3:0.44637171 4:2.5218108 5:-1.1594774 6:1.1082844 7:2.2584319 8:0.45463068 9:1.0715415 10:-0.89974687 11:0.009897392 12:0.2034636 13:0.73131739 14:-0.65090159 15:-0.41182861 16:-0.091426897 17:-0.44857825 18:-0.75285026 19:-0.4334182 20:-0.48607559 21:-0.4273003 22:-0.38911782 23:0.13049774 24:0.74216191 25:0.0083090639 26:-0.52604327 27:0.18924916 28:0.081670763 29:-0.79743634 30:-0.082753491 31:-0.96121628 32:-0.52742903 33:0.82699168 34:-0.52742903 35:-0.96121628 36:-0.082753491 37:-0.79743634 38:0.081670763 39:0.18924916 40:-0.52604327 41:0.0083090639 42:0.74216191 43:0.13049774 44:-0.38911782 45:-0.4273003 46:-0.48607559 47:-0.4334182 48:-0.75285026 49:-0.44857825 50:-0.091426897 51:-0.41182861 52:-0.65090159 53:0.73131739 54:0.2034636 55:0.009897392 56:-0.89974687 57:1.0715415 58:0.45463068 59:2.2584319 60:1.1082844 61:-1.1594774 62:2.5218108 63:0.44637171 64:-0.42968153 
-0 -0.13994846629956914 0 0.38060182052306929 1:-1.6443457 2:-1.7142953 3:1.2429719 4:3.155212 5:0.73558048 6:1.7420986 7:-1.1352649 8:0.20812665 9:-1.0673813 10:2.4036552 11:-1.1405443 12:-0.18558517 13:-1.2573052 14:-0.64176478 15:0.31401665 16:0.76934918 17:-0.21713367 18:-0.18521183 19:-0.64774289 20:-0.42682265 21:-0.0052183336 22:0.30267149 23:-0.65357889 24:-0.11762483 25:-0.58860436 26:-0.75431678 27:0.63368339 28:-0.42553096 29:0.029690845 30:-0.35929734 31:0.2958998 32:-0.75260705 33:1.0658845 34:-0.75260705 35:0.2958998 36:-0.35929734 37:0.029690845 38:-0.42553096 39:0.63368339 40:-0.75431678 41:-0.58860436 42:-0.11762483 43:-0.65357889 44:0.30267149 45:-0.0052183336 46:-0.42682265 47:-0.64774289 48:-0.18521183 49:-0.21713367 50:0.76934918 51:0.31401665 52:-0.64176478 53:-1.2573052 54:-0.18558517 55:-1.1405443 56:2.4036552 57:-1.0673813 58:0.20812665 59:-1.1352649 60:1.7420986 61:0.73558048 62:3.155212 63:1.2429719 64:-1.7142953 
-0.38691806770894305 -0.9367342697449399 0.68087161762941184 0.25562410571209881 1:-0.24109712 2:-1.0893708 3:1.3407307 4:1.8839829 5:-0.30463234 6:1.9886936 7:0.67035442 8:0.21961821 9:-0.67420553 10:1.7320219 11:-1.0190507 12:-0.27363101 13:-0.2894386 14:-0.56481728 15:0.14520839 16:-0.066952146 17:-1.0022953 18:0.50983572 19:-0.83547165 20:-0.41029871 21:0.043583108 22:-0.17477977 23:-1.5833637 24:0.5854526 25:-1.4264779 26:-0.10291725 27:0.48406039 28:0.19315433 29:-1.5643692 30:0.43884554 31:-1.054613 32:-0.18413461 33:1.0527 34:-0.18413461 35:-1.054613 36:0.43884554 37:-1.5643692 38:0.19315433 39:0.48406039 40:-0.10291725 41:-1.4264779 42:0.5854526 43:-1.5833637 44:-0.17477977 45:0.043583108 46:-0.41029871 47:-0.83547165 48:0.50983572 49:-1.0022953 50:-0.066952146 51:0.14520839 52:-0.56481728 53:-0.2894386 54:-0.27363101 55:-1.0190507 56:1.7320219 57:-0.67420553 58:0.21961821 59:0.67035442 60:1.9886936 61:-0.30463234 62:1.8839829 63:1.3407307 64:-1.0893708 
-0.90483632867454467 -4.5199298704062807 0.76837317652976911 0.84005297667286205 1:1.1059171 2:-1.1966004 3:-0.53197947 4:0.01320423 5:1.3809979 6:0.74475971 7:-0.81034191 8:1.3558526 9:0.45752294 10:-0.77738701 11:-1.399366 12:-1.0745048 13:-0.80124842 14:-0.29313931 15:-1.071347 16:-0.35589994 17:-0.73597468 18:-0.57586434 19:-0.76667093 20:-0.19938999 21:-0.59192084 22:-0.83316138 23:-0.52278738 24:-0.91534543 25:-0.05409242 26:0.32775117 27:-0.10767155 28:-0.20754535 29:-0.41274045 30:-0.75688404 31:-0.92100985 32:-0.55027553 33:-0.95104765 34:-0.55027553 35:-0.92100985 36:-0.75688404 37:-0.41274045 38:-0.20754535 39:-0.10767155 40:0.32775117 41:-0.05409242 42:-0.91534543 43:-0.52278738 44:-0.83316138 45:-0.59192084 46:-0.19938999 47:-0.76667093 48:-0.57586434 49:-0.73597468 50:-0.35589994 51:-1.071347 52:-0.29313931 53:-0.80124842 54:-1.0745048 55:-1.399366 56:-0.77738701 57:0.45752294 58:1.3558526 59:-0.81034191 60:0.74475971 61:1.3809979 62:0.01320423 63:-0.53197947 64:-1.1966004 
-0 -0.19049364813473046 0 0 1:-1.72746 2:-1.9204043 3:1.772781 4:2.8772193 5:1.8318966 6:0.67451216 7:2.3673864 8:-1.1865604 9:-1.0047497 10:0.20244545 11:-0.46069632 12:0.74743894 13:1.1629036 14:0.017237992 15:-0.49561642 16:-0.51641382 17:-1.198716 18:-0.53829837 19:-0.35441017 20:-0.19829676 21:0.26084476 22:0.58485016 23:-0.37533225 24:0.30730819 25:-0.59086402 26:-0.91868094 27:-0.12799202 28:-0.29657252 29:0.089980792 30:0.27914316 31:0.17469379 32:-0.54932467 33:0.65841705 34:-0.54932467 35:0.17469379 36:0.27914316 37:0.089980792 38:-0.29657252 39:-0.12799202 40:-0.91868094 41:-0.59086402 42:0.30730819 43:-0.37533225 44:0.58485016 45:0.26084476 46:-0.19829676 47:-0.35441017 48:-0.53829837 49:-1.198716 50:-0.51641382 51:-0.49561642 52:0.017237992 53:1.1629036 54:0.74743894 55:-0.46069632 56:0.20244545 57:-1.0047497 58:-1.1865604 59:2.3673864 60:0.67451216 61:1.8318966 62:2.8772193 63:1.772781 64:-1.9204043 
-0.0056157753207841813 -0 0.084405476791721168 0.18455547864718908 1:-0.50047333 2:-0.48729122 3:0.59031298 4:2.0515547 5:-1.7279693 6:0.41144704 7:3.316683 8:-0.090349895 9:0.66797442 10:-0.18661376 11:0.32038029 12:0.73439701 13:-0.22920386 14:-0.12160255 15:0.030830563 16:0.87997728 17:-0.82020871 18:-0.88776601 19:0.46891832 20:-0.073704279 21:-0.38056245 22:-0.81970318 23:0.19840254 24:0.15251816 25:-0.23126497 26:-1.1721654 27:0.011273972 28:-0.2807604 29:-0.72502975 30:0.34698858 31:-0.55462237 32:-0.18885017 33:0.55921863 34:-0.18885017 35:-0.55462237 36:0.34698858 37:-0.72502975 38:-0.2807604 39:0.011273972 40:-1.1721654 41:-0.23126497 42:0.15251816 43:0.19840254 44:-0.81970318 45:-0.38056245 46:-0.073704279 47:0.46891832 48:-0.88776601 49:-0.82020871 50:0.87997728 51:0.030830563 52:-0.12160255 53:-0.22920386 54:0.73439701 55:0.32038029 56:-0.18661376 57:0.66797442 58:-0.090349895 59:3.316683 60:0.41144704 61:-1.7279693 62:2.0515547 63:0.59031298 64:-0.48729122 
-0.14303726789329885 -4.6058085283502299 0.032341240755628248 0.14869728061861659 1:0.70973449 2:-1.5166617 3:0.15492068 4:0.40446612 5:2.1203576 6:0.88566042 7:-0.30440456 8:0.63582037 9:-0.18996257 10:-0.61433672 11:-0.11789471 12:-0.1802724 13:-0.31064487 14:0.13840544 15:0.18701845 16:-0.52649542 17:-0.31631693 18:-1.3649086 19:-0.47232314 20:-0.62589221 21:-0.56919623 22:-0.41090987 23:0.26173705 24:-0.73813499 25:-0.48518469 26:-0.68901695 27:-0.90628442 28:-0.36580091 29:0.26845815 30:-0.35376566 31:0.095130249 32:-0.68156353 33:-0.98620653 34:-0.68156353 35:0.095130249 36:-0.35376566 37:0.26845815 38:-0.36580091 39:-0.90628442 40:-0.68901695 41:-0.48518469 42:-0.73813499 43:0.26173705 44:-0.41090987 45:-0.56919623 46:-0.62589221 47:-0.47232314 48:-1.3649086 49:-0.31631693 50:-0.52649542 51:0.18701845 52:0.13840544 53:-0.31064487 54:-0.1802724 55:-0.11789471 56:-0.61433672 57:-0.18996257 58:0.63582037 59:-0.30440456 60:0.88566042 61:2.1203576 62:0.40446612 63:0.15492068 64:-1.5166617 
-0 -0 0 0.27542370051414466 1:-1.6537011 2:-2.3755741 3:1.6512083 4:2.7483781 5:1.9636263 6:-0.10541088 7:2.5180055 8:-1.664028 9:-0.22583391 10:0.21293216 11:0.38888759 12:0.73429739 13:1.9990802 14:-0.48177716 15:-0.33884373 16:-0.48914821 17:-0.86633681 18:0.35118015 19:0.93559115 20:0.5089033 21:0.12376809 22:0.52954873 23:-0.48872964 24:-0.38975333 25:-0.77572931 26:0.044720217 27:0.52747415 28:0.37477559 29:0.80356477 30:0.47797242 31:-0.054172882 32:-0.9999435 33:-0.19167686 34:-0.9999435 35:-0.054172882 36:0.47797242 37:0.80356477 38:0.37477559 39:0.52747415 40:0.044720217 41:-0.77572931 42:-0.38975333 43:-0.48872964 44:0.52954873 45:0.12376809 46:0.5089033 47:0.93559115 48:0.35118015 49:-0.86633681 50:-0.48914821 51:-0.33884373 52:-0.48177716 53:1.9990802 54:0.73429739 55:0.38888759 56:0.21293216 57:-0.22583391 58:-1.664028 59:2.5180055 60:-0.10541088 61:1.9636263 62:2.7483781 63:1.6512083 64:-2.3755741 
